{"version": 1, "network": {"layer_sizes": [808, 64, 12], "layers": [{"input_size": 808, "output_size": 64, "activation": "relu", "W": [[-0.48364242630433224, -0.23657080242905268, -0.10882796745756297, -0.37853451651352044, 0.09419042675831314, -0.36420834441927696, 0.03142972688258051, -0.008665994219884595, 0.47484580948537597, 0.5394725031785098, -0.0010894589600909665, -0.14112011421771317, 0.31856368372568017, 0.09901359595512399, 0.2526148496324138, 0.2020328928025598, 0.29409801120097906, -0.18683987075816552, 0.2852453889959963, 0.11081121758693531, 0.22081078662259737, -0.08065542143874581, 0.16952592275537132, -0.051263909334270115, -0.12304117553894833, -0.12119968730542258, 0.0985077356199246, -0.06881197867352588, -0.2589910210159753, 0.15565394219081027, 0.16003412040803885, 0.06780365557004985, -0.08143575392048008, -0.19404646106486492, -0.04290664326658573, 0.06827497295753285, 0.13328018912787368, -0.38654150868784515, 0.3284715750347136, -0.2149618455965253, -0.4416388378284758, -0.005353277105504414, 0.11037929202574902, -0.19310392287914965, 0.014852220344039012, 0.12422412533695783, -0.13377090365684932, -0.0605592518797618, 0.02482148551489578, 0.021363604165511352, -0.22466149367646612, -0.09302575510654572, -0.07893841196402497, -0.04197679838876603, -0.06909128915789721, 0.08152027605973189, 0.19911724318623464, 0.06332042854746807, -0.17581936678072263, 0.040078629700671185, 0.21493127963247463, -0.0016390823279794273, 0.045860282098081226, 0.07784586715687655, 0.0199938832175775, 0.08346268028869532, -0.1081373192655448, 0.07976526487995843, 0.04742685547336448, -0.07792766209152133, 0.11995927114094973, -0.005066914911768632, -0.22308190542829268, -0.07653182587661841, -0.01952056485741972, -0.07826623278153177, -0.01027845126554361, -0.08832131255325805, 0.0714698039997713, 0.21936799607200996, -0.11676776172827825, 0.15666787145160624, -0.09908722604289072, -0.0932544543445811, 0.11464587853605518, 0.006776972831512291, 0.021426366965867753, 0.10378629231680202, 0.04717908346277915, 0.12995979115881315, -0.0016502054588150555, 0.1072515982233066, 0.33532178343054286, 0.09400031294639273, -0.054046213203970406, -0.03996395210987079, 0.05237868962142906, -0.07047563850013876, 0.19898157811846418, 0.38479859615989426, 0.04915303789264307, 0.13520387930471936, 0.2200072021335287, 0.0607177320790276, 0.15673805961193304, 0.014095573010250127, -0.02607901046921415, 0.0961817910875126, 0.02173501888161329, 0.21586441299254336, 0.15330632212460918, -0.04916060345630229, 0.30393038648044135, 0.04849835428183681, -0.0389664088297502, -0.10295183531605663, -0.03786171839148599, 0.1476097052701481, -0.07816564441934798, 0.01433086121337088, 0.31364147072667536, -0.19179972862084185, -0.02674078240225933, 0.056523435213259414, 0.2777719467982475, 0.012991114502750499, 0.07360866105137805, -0.24354307079163692, 0.3329372300462573, -0.14867734990776016, 0.2749183479279925, -0.0922161381660731, 0.3400589018262413, 0.049951841030460346, -0.006228495460256364, -0.1490015405527775, 0.04320975169823689, 0.06967775866567483, 0.31417604520844866, -0.011738372679490563, -0.1417970374489223, 0.08271320751386659, -0.15331964808303128, 0.046344768906046115, 0.0549295572933231, -0.08070839612174836, -0.1590258764167282, 0.24570736740844898, 0.03273849193099406, -0.020842887226180738, 0.16077572265241225, -0.18992404146056133, -0.06361503012189457, -0.020368629812551983, -0.07407609979913249, -0.03370619232894234, 0.011435522961727068, -0.051677133303613405, -0.14037188673314935, -0.04043166712093838, 0.2839741076894486, -0.06207389716741875, -0.011855209082340973, -0.010549668285042578, 0.02376153639733046, 0.08917302758660041, -0.030113297891503216, 0.07472139235498138, 0.38882226411605075, -0.1575557935004456, -0.023636464002200312, 0.1573447286571742, -0.15383429216737254, -0.04955769747179176, -0.06841717258981747, -0.21835401912452965, 0.3849709227300414, 0.1206710712504159, 0.11189431455660602, 0.008509620033468227, -0.05745606631531015, -0.018679833931382055, -0.03242388883014656, 0.018886597669743647, -0.03615344650176921, 0.031203042123771348, -0.13954352335794545, 0.10797292058291427, 0.1452407403554595, -0.0715498309977585, -0.17186018159210728, -0.027859514726586612, 0.17467861829085798, -0.10639231973697055, 0.02795195047519429, 0.13829189869148495, -0.0825170511373977, -0.10886730934599395, 0.16142415358514217, 0.1153172987435966, 0.018097871851358843, -0.08049916817362124, 0.01417523473252211, -0.05602341236794615, -0.06757155726274289, 0.007613738870925795, -0.029810220816450236, -0.05797010274354868, -0.05653664963887911, -0.08180206206084024, -0.03897187107339197, -0.01740201514885525, 0.10782686208669404, 0.06037089602824532, 0.2452686518139865, -0.03280236987289734, -0.09949681251312906, -0.034859711840838796, -0.0562082543213433, -0.02593765900591843, 0.19925944854293073, -0.09290396322057846, 0.054957480486664975, 0.07100898394792639, -0.03381686679194393, -0.031947070712165695, 0.019434526786231657, 0.027419537327037273, -0.03815145099617823, -0.10191890908227012, -0.005616382946661425, -0.10801469899651203, -0.07229939138906664, 0.0186029027035432, -0.042533248088805035, 0.10559533782792506, -0.05727564325714306, 0.09388490754919337, 0.008543453482265578, 0.022851456367703825, -0.05496347908712892, -0.12035900206792813, -0.01922729743041919, 0.0811364706997739, -0.060218837736698956, 0.016988597532838587, -0.023595029288308995, -0.036272799407879176, -0.1212500643871149, 0.21367179297162728, 0.024962312880040895, 0.09457834439690038, 0.10828340231435382, -0.15616009769629646, 0.04365536892870535, 0.19741407763229896, -0.0828279933851505, -0.14723909342950822, -0.1853882392759465, 0.06843757821723688, -0.07313522106841432, -0.03632598163973815, -0.02943880691253586, 0.02090841045570201, -0.004115373703368469, 0.04989292546212086, -0.07481753789085763, -0.034071844501725825, -0.4663842206646378, -0.04719119416484861, 0.0903859146191883, -0.05214121227124088, -0.11571917075414835, 0.01642191862972681, 0.12831974793365308, -0.07444240184603464, -0.024772474937244333, -0.02139760896740884, -0.20661644240213478, 0.0737517950869187, 0.06284942693589039, -0.008742708526363007, 0.040867403568462426, -0.10129758238156532, -0.1275846851866311, 0.03817706618590536, -0.005071245152888554, -0.013276449555648636, -0.02271376837233363, -0.03390569943736869, 0.03174670250452814, -0.0062391171323004325, 0.027204967108774028, -0.06357255359481173, -0.009333270649944506, 0.20306982411551425, -0.02549295965569179, -0.019630858333535242, 0.0006890640132170556, -0.06402610645654036, 0.015027222333940988, 0.01924039051483791, -0.028236983564313443, 0.1508038472957874, 0.11252719305036082, 0.00315364598496714, -0.03493933085238987, 0.0263484941975865, -0.002425834880079504, -0.013721305282438694, -0.011070349923598437, -0.004074118188900081, 0.047467909385253776, -0.045966634586928755, 0.027674466208215325, -0.04857341648888426, -0.037651503561240376, 0.0027143316275600312, 0.027398937578587357, -0.05522537472639572, -0.023187912922642467, 0.05112870789400566, -0.01651861908036993, -0.03374295997660022, 0.03641859315586544, 0.05714996522538589, 0.11250425277750735, -0.005019766013913281, 0.1980005446085674, -0.11552040222210622, 0.06849912292127613, -0.10664395959807395, 0.02433422513305773, -0.1587317369837452, 0.03473712360701229, -0.016539276333829837, 0.13249853530612415, 0.0488122919988158, 0.044566512776291534, 0.10719330521157194, 0.04001250954324384, -0.11067981537234513, -0.03107638090118163, -0.03083319926111403, -0.03530412545602219, 0.0874570293921844, -0.0772289896012659, 0.12068524784920588, -0.18951127100030069, 0.0013422056019539253, 0.07505311607601226, -0.04599442776885258, -0.055856874549580715, 0.009495686002229503, -0.08066986847067775, -0.01994374716836999, 0.06463000817888759, -0.02802435706774977, 0.14458143368069262, 0.0952371923853492, -0.10500228055212854, -0.03215696383193341, -0.011722943530199476, 0.052296228164455165, 0.0764477520468344, -0.09843715336627165, 0.07788103636357264, 0.007042259648975123, -0.037992716682202894, -0.03463969221960603, -0.189018944856307, -0.040255871072384736, 0.1674529504680301, -0.125892356844216, 0.2398303051456812, -0.028038347983088102, 0.19840205142930764, 0.0040968082756544155, -0.030346181355736395, 0.08531908977097051, 0.007709516294938338, 0.053133731190435164, 0.21538554977988622, -0.03616796458871625, -0.05861993368123393, 0.04333157324411692, 0.10371724216175804, -0.11870657298703588, 0.3072010754713488, -0.231818174093328, 0.06188454308735813, -0.038511035436350885, -0.0677762720332777, 0.1408534050368413, 0.0070961966693709935, -0.01064886523696551, -0.04592990628753768, -0.057328385230925163, 0.03550967835156205, -0.012553352281946565, 0.011016153890024366, 0.1516942430237951, 0.007787721521549109, -0.01203420522816877, -0.1179571507842462, -0.0906532576981653, -0.0046656465135743366, 0.02227173577261094, 0.012782090357503047, -0.0709843160213979, 0.035863415264696254, -0.016569959378707484, 0.060215425135679276, -0.08573506648084164, -0.09301138389141453, -0.1338870054072708, -0.034349422015258146, 0.008175431256034931, -0.0008924191598391407, -0.006322972018331397, 0.001137192799132858, 0.115373477293656, -0.0013893501764222008, 0.047348977055683396, -0.015081957822169667, 0.015246765384813312, -0.031024229931964412, -0.10997874131496393, 0.09655899349650947, 0.03391477339764233, -0.005530017556276212, 0.017457031344845653, -0.02434819904762977, -0.03518145494960406, -0.003268814436577419, -0.040652209759499014, -0.0028193820882245167, 0.00989558226280303, -0.04562764154354507, -0.03364502062501791, -0.007197491311735622, -0.04934089820718546, -0.020154221295053263, -0.022836504990219463, 0.03779189916798353, 0.004541179281053491, 0.050218647855997466, 0.01079129391717806, 0.04081181122988816, -0.03180026783078461, 0.0025896555213218535, 0.10231803452067817, -0.03281705034386429, -0.02782638607885381, -0.0041257767952715095, 0.01424690088752885, 0.0028282580840574612, -0.05369377761498512, -0.026846041109877945, -0.16568224271528248, -0.04566495434051959, -0.02784560798497232, -0.13638212041601497, 0.012207707395242162, -0.042472550553842484, 0.005963770003344378, -0.0098864182986717, -0.013017372122773431, -0.06288125559999524, 0.02195989316052626, -0.05541054227433065, 0.022164805451422732, -0.022239845926895846, -0.0391968708454768, -0.01706197441524858, -0.03986306069025217, -0.039990155123449646, -0.011663555500746124, -0.025476017194092863, -0.02828846932639109, 0.009150993877565686, -0.052341600685623935, 0.018777310044453918, 0.058437562190434014, -0.013603136118981715, -0.03659245844442118, -0.07200521697571531, -0.048876395225057906, -0.013030241353673144, -0.003886373535670217, 0.0012955208833383266, -0.1117499459590768, -0.022087862166668144, -0.018530886063813198, -0.034438106617068406, 0.009310200994600178, -0.043635783692828826, 0.09818191661634268, -0.08204750375127395, 0.02182435293786321, -0.0016816310439996542, 0.030805525999988218, 0.023550843614662018, 0.09513503358827134, -0.0090879266667552, -0.019546066543964406, 0.002127820839348509, -0.06607878079677654, 0.04449675890643614, -0.014980192228392251, -0.1249664710918473, 0.02237104287635506, 0.011877655079333877, 0.07784619286564771, 0.0027450903944108594, -0.0035624248931974793, -0.0019416955447110413, -0.26780672411210316, -0.012329697837235944, -0.03335053200962379, 0.010083646708122385, -0.026523857810596626, 0.007829511215253583, -0.0267474067082209, -0.003932641485557458, -0.013661477186468039, -0.010706674372033279, -0.009272872913907108, 0.006839164805142132, -0.011025706869817771, -0.1476935054813847, 0.08586080333599018, -0.0012930123825514474, -0.012784359550408537, 0.08343166915426534, -0.01661485693482016, 0.006793377051222335, 0.01225761900709441, -0.08901408700372258, -0.004931922184490016, 0.01628697120955596, -0.08823948267017828, -0.00013139731504767843, 0.19807017464624277, -0.03304242893067816, 0.013915745307593748, -0.049682582216040286, -0.043712358126877925, 0.027331708534358956, 0.08084508932541143, 0.01632419218418878, -0.017481950656467325, 0.08596863462855969, -0.016370828211733017, -0.08103063887046574, -0.0382772175831842, -0.10999705055214495, 0.01980165265557265, 0.013148923559014359, 0.14809671126834037, 0.03303639823234859, 0.049714771412112356, 0.03313671456515873, 0.08676708466771262, 0.01033512468040062, -0.01545511738870097, 0.020057286955957234, 0.063918786808632, -0.011221276898831853, -0.03256511984157017, 0.007017732313225758, -0.0055318666158576, -0.025267268622798385, 0.020180594432593665, -0.007562020045115822, 0.08156257694863074, -0.0005320369621516028, -0.0006876325393659313, -0.014896092009408795, 0.006396116311872662, -0.004960801063661828, -0.010644977798469533, 0.008953607182180861, -0.006910325898670163, -0.00845263197999532, 0.08021474365290435, -0.01438737519088545, -0.029024207492700977, -0.0018500041810273927, -0.004324169151111826, 0.003754573325600648, -0.02346036304904025, -0.00995527913570746, 0.036127021101037486, 0.009530670586316682, -0.12433538960142293, 0.18578624846884348, 0.11249557838796743, 0.0232372697622158, -0.0008941342799246869, 0.000517064729345167, 0.0026381375886564183, -0.016805948250397253, 0.015187361461023695, -0.005867519618791663, 0.05741264179381818, 0.0010640162189793217, 0.0010229024372388521, -0.0755900280451416, 0.0839275929148474, 0.02549509077037066, -0.007985169796081666, 0.16121712590616746, 0.04444604793182441, -0.0063788309453162995, 0.02969642786003521, -0.00022887083968737619, 0.006927565829400092, 0.11014461781249847, -0.008807952821011886, -0.05033578801987997, -0.14987614624184425, 0.07003023061549488, -0.05686035755766193, -0.016520145776078715, -0.01567406412678855, -0.011275216269272664, 0.04742111171536601, -0.015980033627401077, -0.03554930663114875, 0.009912710743285695, 0.06626776776572692, 0.01184928562108537, 0.007150267703659856, -0.010829886273061421, 0.025200294844490743, -0.03334434843244057, -0.06925709598831577, -0.007824444371410331, 0.00867698425016906, 0.025011332439820254, -0.07214061319416308, -0.0016856427948129626, -0.005280207424505587, 0.009197838993476684, -0.002111427949051524, -0.012141210604706373, -0.0571281823707128, -0.008726141877472716, -0.10668430377376333, -0.026775582867061852, 0.03986810476552256, -0.051766163496117096, -0.010235767492919351, -0.0016808719119767298, -0.015208980494408133, -0.02811807976101508, 0.0060327163870779925, 0.002440544361681576, 0.05011694426383197, 0.07245379926164743, -0.03357347347554445, 0.008709186612174048, -0.0019131745526373548, 0.05175284364285539, -0.04282006139615843, -0.014047794591010724, -0.05697971054755732, 0.1424761577243014, -0.0020042281174657054, -0.019022416748396415, 0.006528325681790727, 0.010073899408028077, -0.0005343609924671386, -0.041107276449625196, -0.030415950324729005, -0.0006356195859128579, 0.09931028600338031, 0.0018047678307435738, -0.030445821735688328, -0.003118948485158634, -0.004944023694095982, 0.03839481451269146, 0.0035064406703989495, -0.0077897398230546405, -0.01355715692688082, -0.0015553106000397027, -0.0022992571854542183, -0.01482679937540127, 0.0016862298726547913, -0.03142305365078619, -0.015288618455896692, -0.008668302917510608, -0.022684679419507456, 0.0016127077108985704, -0.013613242892821982, -0.030689919161065206, -0.019209120600850643, -0.011179883795830254, 0.0034083077932328724, -0.018220848614594613, -0.020483138525592144, 0.0017826313396986763, -0.0016047458590129594, -0.003945565702304973, -0.2083569042017303, -8.442501267131463e-05, -0.01297760826381828, -0.07042633424053135, 0.059106070722587695, 0.015084985692703126, -0.014374612477128942, 0.006210066901273122, -0.17090126568625788, -0.004092300124147789, 0.0030046236660029924, 0.06307658791941942, 0.0026361975195662362, 0.01717959115333225, 0.008290742660331472, 0.021523519008962433, -0.015921257387198462, 0.009281607820535184, -0.011222804798570638, 0.06577004845329071, -0.01198657118671921, -0.004181751882808479, 0.0014176638173315301, 0.014922366168097796, 0.02098987550520811, -0.01427124962853585, -0.00425104698838704, 0.07345035024094201, -0.002978254978211441, -0.11289504508301354, -0.01150424181124566, 0.007928811486268143, 0.0002273152894004101, -0.005199099496967408, 0.08298973767248741, 0.009111348944799941, -0.010117598207226967, 0.030009425705563645, -0.00019597797632644857, -0.0057315630715068676, 0.02796041079727941, -0.03444013691111933, -0.012932442038530535, 0.0033570107625687452, -0.06275682323301307, -0.019614661977652322, 0.02571093567096874, -0.0019977224995253624, -0.02852549170640097, 0.014601298902601428, 0.011465319462497493, -0.009958611253815084, 0.010452530672939515, 0.0036221639746740713, 0.008757520928615222, 0.0026448193786581626, -0.1447765440953656, 0.001866431251731948, -0.00201844499248872, -0.07435043596154815, 0.004773367265513008, 0.031242127638238394, -0.016725383078651485, -0.008778673062498448, -0.009632784035305268, -0.005732087444487923, -0.005638285509849142, -0.0003954955676644181, 0.008853265934990123, 0.036297291555630294, -0.008957714579219686, 0.016598204530992144, -0.03858766069842824, -0.004853214422911459, 0.0011991398387495638, 0.018225825634402525, 0.00551840537622803, 0.0031153324265577754, -0.011663606187184873, -0.003456612154450316, 0.018095268668356455, -0.007034867255078413, -0.000925432507186592, -0.009331120255863702, -0.0031140795947916296, 0.029125460933324954, 0.060131173658105525, 0.014504206575201288, -0.03697214666953756, -0.10787661264185172, 0.030745018244667414, 0.011544642254392966, 0.00677422410824984, -0.018513770746404312, -0.0009007984706598965, 0.006373810764989919, 0.00753593879744553, -0.03154543146124382, -0.08696679995737422, -0.12130849686405826, -0.04306540777498642, -0.01144183462516958, 0.009908891428437575], [0.22959966027544784, -0.03142492209656823, -0.10393257716940882, 0.10075504320472967, -0.12579456208217352, -0.09897603114457046, -0.10725698381767362, -0.20908134516459032, -0.12395583719363919, -0.13306085604198853, 0.17801054890714846, 0.18178240692496134, -0.06101002548875094, 0.16975072108674283, -0.08281812595486204, 0.099729309725417, -0.08821568692587263, -0.12741555020913747, 0.2319593503972048, -0.046849703836761326, -0.024567859007089698, -0.08169173331824886, 0.003475821139630086, 0.12547151660137654, -0.056195873623078735, -0.07517518985889547, -0.08380262338720694, -0.03627315466086095, -0.07712425914877355, 0.17469920160771482, -0.0035935093664810065, -0.06409032992459286, 0.0014532754890393667, -0.07690632313150116, -0.08121104014894241, 0.0004923091149862408, -0.06408877642409917, -0.009264813710806192, 0.06361561437449033, 0.004142184366877131, -0.03796831118038658, 0.009428479224019445, -0.044077329721011006, 0.15039808474461738, 0.25781538372387064, -0.08082867164284037, 0.016816950219945937, -0.05892913451035589, -0.027964068957105955, -0.0316042175631534, 0.013490890469060692, 0.1063693797890505, -0.06173175618437302, 0.08608159571612022, 0.06122348004807138, -0.12109870330842352, -0.0664972484418524, 0.1852658870380098, 0.00899763738769968, -0.013374043956757346, -0.05105715178883245, -0.005310656056583753, 0.20766999897657565, -0.052380938810479685, 0.08070761368922236, 0.026720395408229344, -0.05699380687926912, -0.0954107835235043, -0.029297090534975756, -0.08112687851089787, -0.013113115495429307, 0.06237253777227236, -0.08244998033323946, 0.16497976067354878, 0.051497408778385066, -0.05220746236290534, 0.1632016686757533, -0.061287145119708106, -0.03705932564970875, -0.06405532750316147, -0.11530857535590432, -0.14782136271776092, -0.0662834065075244, 0.15619267363425504, -0.10600237759312343, 0.01923484683859749, -0.0022210012636642773, 0.11919933938295868, -0.011400964991715813, -0.020182381319121315, 0.18642815875295463, -0.009888546798292657, -0.022391652369634283, -0.01134645558941001, 0.0028578126293059116, 0.08931209726566289, -0.08974186652508173, 0.19001635324173996, -0.03992600895313579, -0.183197510860363, -0.060900367375229705, -0.08871955630057089, -0.09152082407518745, -0.012744043472023838, -0.03945791160857624, -0.07113753698227296, -0.02099282025865667, -0.04550976396743434, -0.03984238428583826, -0.046056576146999734, 0.07488904887993689, -0.032842027410093295, -0.06083668366416102, -0.0757910636001405, -0.03073530951528989, -0.045361789760498566, -0.041137889848602185, -0.04506806982904299, -0.022763856131844687, 0.0017664774466528996, -0.04391574233836229, 0.03665997280563613, -0.055571506519771684, -0.038413350084159456, -0.016903504689266144, -0.03574801473480358, 0.04892666118843229, -0.04806084609046327, -0.10146004724002877, 0.11818531875265331, -0.07711453403828425, 0.046711433386958996, -0.055011373914489334, -0.14811554630340878, 0.037930762337312615, -0.03834811087754818, 0.025760092927997216, 0.004626589878839824, -0.04079513774685574, -0.08555708330172303, 0.1442221584889015, 0.07884829331335119, -0.08323520952789432, -0.09367946267945702, -0.032618798517437986, -0.012744287513484852, -0.04456246594901507, -0.030172915153227155, 0.0090992869771894, 0.07148984929430643, -0.06882768484071371, -0.1429866261943752, -0.007888789325116951, 0.05302484221102536, -0.02803773857688712, 0.055566919177785466, -0.13879267545407167, 0.0060576324511328605, -0.0777734904187652, -0.08827574927073933, -0.02001238504825076, 0.010836636501168683, -0.03833422390737051, 0.0292400614773211, -0.10088534847992453, -0.08302236345392044, 0.01576760544775518, -0.05137877096539762, -0.05804223035727741, -0.0016712076372361663, -0.041532097732776906, -0.02067176931696336, -0.01499340941828608, 0.10326770880791533, -0.030989284470876063, -0.04509614395745068, -0.05109708546677001, -0.05874476239789343, 0.03904568526979031, 0.0061503251036824705, 5.80288644378838e-05, 0.021420076970252704, 0.06866955482202979, 0.10633028141973166, -0.024168051335477794, -0.04091652486800128, 0.11451512520346341, 0.02297554543799489, -0.03731895863147415, 0.08121246206536292, 0.013603100866686242, -0.039007475114229445, -0.004261537690314481, -0.022404585776321234, -0.04501427116713318, -0.05346545669433671, 0.04081793784597532, -0.04014440255840246, 0.029319473560051327, 0.03132429326401972, -0.012122035361161083, 0.003688378934589142, -0.019762716914689706, 0.00772469979779636, 0.16751781092981569, 0.06544037648936411, -0.018703675426343828, 0.08064807163528717, -0.00922858846179773, -0.029639213466148874, 0.0749283952435397, 0.005560840048982182, 0.03137516659631759, -0.0026490999155502548, -0.06472149447506487, -0.07091944301237177, 0.04004925235673892, 0.15056828858941104, 0.0968333413405701, -0.01010602345612752, -0.011602348269527482, 0.0055687719083660535, 0.06713255293223304, -0.03884732507978698, -0.02740299907949209, -0.09777095301626962, -0.007816600859030916, -0.01668039424369216, 0.07872563656810361, 0.07758482153691558, -0.006164986664272362, -0.013774632301205179, 0.013688686977446926, -0.014942578638807534, 0.006164006598510985, 0.029574880596905738, -0.005824463042754879, 0.041341207294361644, 0.004476932002491678, -0.007021268835951283, -0.014229667273608412, 5.580178277255583e-05, -0.024291468819494753, 0.018091560670170762, 0.030786308111141063, -0.013765590671185792, 0.04031874282490316, 0.009641328859583765, -0.018585518757571317, -0.005886708457564525, 0.06293254625948765, -0.038842439574572916, -0.06765209097528492, -0.04961648105631902, 0.02815775471157298, -0.0339936351321372, 0.04969017814078072, -0.09899324021951957, -0.055767722049369195, -0.019612843873630055, -0.027085973941671455, 0.06331188863036408, -0.05027269512788537, 0.02704075553529765, 0.01944713077509366, 0.02728098661257234, -0.00048179629490949574, -0.029588420930606586, -0.022239859464185493, -0.05781944946689912, -0.025937971825658056, 0.018458400055354884, -0.007321367784059732, 0.0672186891177854, 0.03408711937043705, -0.01992274354767732, -0.026449595402323074, 0.030919995875089288, -0.04285667972492557, -0.016987082920622964, -0.007087150405239512, 0.034579490939357665, -0.008533539464795212, -0.03724828734653852, -0.007040225197744445, -0.017779160173234086, 0.039932384510159874, -0.04158325737951156, 0.008161648260250657, -0.02822073482965042, 0.005164932645623246, 0.027235482370706, -0.04034868987806867, 0.009641214653670642, 0.07460244582703678, 0.03927012949835712, -0.0041956640475623724, -0.035213541863396376, -0.005074386051468482, -0.08443645120805597, 0.014481942849734548, -0.0194079980821484, 0.012106936332587645, -0.04025737400683962, -0.015574617723656908, -0.009221580616293183, 0.08265699303142454, 0.043085117537369405, 0.012370526190581266, 0.036159149788394, -0.021608872434520983, -0.016556241441772885, -0.018475858093487278, 0.009210612899697908, 0.006326421325639341, -0.09304967887369713, -0.03958710871079212, 0.02247118320961082, 0.003077617698839155, -0.0749831761768978, -0.013775706575920758, -0.007121360049093655, 0.07236058446503078, 0.00817230843044569, 0.012690707601054502, -0.023510603570046584, -0.009768303013374821, -0.007976265603121677, -0.03682476699434851, -0.015754848218065304, -0.00604243126965643, 0.003330745536611543, 0.03503086051834432, 0.07137768042381865, -0.138388485453194, 0.021454545383463773, -0.05251869816368938, -0.019003196415320753, 0.0026800556332070282, -0.010617957676839072, 0.032175367723781365, -0.014053873274520009, 0.0020860179420606577, 0.027484047624357306, -0.03515830643639797, -0.03497801562135155, -0.024825921580301454, -0.04895178053926355, -0.036484239768361314, 0.0012989500286229132, -0.0012850453512785447, -0.02707691490612357, -0.019516145847402286, -0.023104058625363803, -0.015612744758154508, 0.012919208469263956, 0.02791452649018193, 0.117934407358392, -0.03700811801810339, -0.009813707724048819, -0.0026564331982549786, -0.013865784607507523, 0.019578074519971088, -0.008759542269766973, -0.00030727162303538985, 0.06332282659298637, 0.017827549300509303, 0.03344174398256263, 0.028179000244849654, -0.0005463024742170595, 0.0826747857868109, -0.0683583752402151, -3.60509279679253e-05, 0.023452196690438982, -0.08803019546752183, 0.034946745729893695, -0.015087027811927861, 0.014734533952556443, -0.010121273693449607, -0.030285362660096064, -0.04733270326918926, -0.018502093951788885, -0.035558139823998657, 0.028842108497518892, -0.043465900102421254, -0.011171769129632431, -0.06282430448692874, 0.012142118159837111, -0.0351018029178046, 0.007924025321195153, 0.06566672658603948, 0.0506475631373755, -0.023645310204596544, -0.009621380650285855, -0.0015688781922332659, 0.02130892539777995, -0.014727739663060388, 0.0001744732484493825, -0.013483231341556092, 0.004794173437855921, 0.006271516679663499, 0.0022042295133648353, 0.011689804847849426, 0.026984410240644078, -0.02249227438626005, 0.04874260026837078, 0.040294658149170166, -0.027351063379704783, -0.0219335317614274, 0.04267669135476035, -0.011015588309937293, -0.020502903960564388, -0.013520937045953292, 0.021016866634754678, 0.015098613258009945, -0.05261467698171915, 0.011520261468408975, -0.0028968538668293904, 0.00912916712084733, -0.008227471618845312, -0.009130216077218868, -0.051846221458325716, -0.007274951256549693, -0.009816500370698252, -0.005235883902030545, -0.031621103848362156, -0.01398812623906951, -0.011622124380102999, 0.03135233593111597, -0.01875379406372954, 0.03248060233127151, 0.0021878480196244722, 0.008614539324175085, -0.012435760251540714, -0.003913534729971903, 0.024954929537568876, 0.02240424817997524, 0.02137311752320009, 0.0181788106424058, 0.007988300222925791, -0.015130436228007143, -0.005157464858771428, -0.011135493459717552, -0.0004948348466500732, -0.021418342634418663, -0.0029812433179763472, -0.001054111685607859, -0.029821271798995824, 0.0037449497318241026, -0.01069207671520234, -0.09947199965218219, 0.002193245056124203, -0.010398538832819142, -0.0014707254745053493, 0.00901852276087135, 0.012968035024879468, -0.0023433128606085603, 0.07384399292768895, 0.03991604102034384, 0.09855102370991044, -0.06434866424973598, -0.010240942534432732, -0.012558601055766361, 0.004685096000017082, 0.0070614592732072025, 0.010246940165988727, 0.008031638415965313, 0.03139037307027548, -0.015990624112246915, -0.011241375879906543, -0.005643763369528061, -0.01400082899212773, 0.03324090666222605, 0.025819757600714307, -0.00493401787821771, -0.05173576500983448, -0.017127282918220903, -0.031496224651168164, 0.07547216203753741, -0.01499195378166534, -0.009063183569887372, 0.0030450586702798505, -0.02525837662452317, 0.024468297905440004, 0.06176329863109961, 0.03346372399170535, -0.007172339229921722, 0.013343041352441836, 0.049017471840793046, 0.013185826551670379, -0.004650005379105694, -0.0023338478342013196, 0.023163637913457952, -0.0011585185977301179, -0.0069258151847283594, -0.016326630380493406, -0.019117992975963997, -0.032456035532683634, -0.0048453152418295575, -0.008333110049758256, 0.0297720586739675, -0.005772212603287885, -0.0035112538469478758, 0.005049359391104826, 0.06203333167851097, -0.0037270250458264036, 0.0007989468325418829, -0.006920503638094726, -0.008231028898586514, 0.04694134103766891, 0.14734769720779134, -0.007696523206755542, -0.0018923510819634092, -0.01615170783922363, 0.020672301146603622, 0.007385280003492756, 0.030270958549560464, -0.004537494594219132, -0.02005335276512016, -0.009880218181275702, 0.008399757635785042, -0.021478029241732508, -0.015840056738560798, 0.018840592216283026, -0.009508027663214394, 0.0019509037555146941, -0.015744900437567155, -0.0065903668067423685, -0.0002317565193145684, 0.0028129884865751792, 0.08725582745875876, -0.03127527177035906, -0.008409976297559634, 0.014000056613514365, -0.0262867506426569, -0.0013512334529180924, 0.03751950731993277, -0.007324906702712417, 0.015858118013138345, -0.009410028621366267, 0.01578196863709624, 0.0019400337485364944, 0.003877828676179711, -0.04932784635908185, 0.0029227127854565167, 0.04420071852697445, -0.02183521864720127, 0.023581943803814554, -0.0015116224120973044, -0.0047374236465935055, 0.008942461977066966, -0.009042249335038825, -0.017093215163437703, 0.005786373283972194, 0.08858180981422555, -0.021683624845304127, 0.03302834172320555, -0.007954659408712334, 0.005882276240614214, -0.046831535911950356, -0.03496329427666618, 0.010206972901032226, -0.016286886246212537, -0.008460559461235558, -0.001361797331462486, 0.0018846661891450604, 0.017240730306612318, -0.016469590431143256, 0.002880017302178219, 0.06864683434881098, -0.001690001908209504, 0.012743818525573016, 0.017340287011737315, -0.02221333566202173, 0.0018902983678150366, -0.014320658005825042, -0.006890689491635119, 0.00963116416305728, 0.007414876465549203, -0.038511360597204516, 0.022610095020127584, 0.009412506068899238, 0.012497466178650917, 0.000325664659560403, 0.00040970706661864207, 0.03907494059544133, 0.022166263527627645, 0.06784640911249262, -0.00013208929667724576, 0.015124278606060176, -0.025442356571321868, 0.022312145139770704, 0.014772235598887885, 0.010503856079865865, -0.022778223600478466, 0.008740542460865917, -0.05862056966154693, -0.006757433673801334, 0.007349756314409932, -0.002630395062114089, 0.005565900664917106, 0.00018202534959158587, 0.054757224453042076, 0.0015557076215422577, -0.012470255824667827, -0.01791922301371269, -0.005324494757768073, 0.009524452504905023, -0.0021680703129531064, -0.0036331744678200248, 0.0036963815265672957, 0.03164677822219583, -0.059236399558108915, -0.008291073779845412, 0.009000132479785495, 0.011168199118065523, -0.0025279491395162877, 0.005279062742364741, 0.005314402882921789, -0.02120267250625467, 0.010895849947070463, -0.07099109891388201, -0.002575974326948598, -0.009295496946807725, 0.006219321437991323, 0.02290905180403547, 0.00219562310680947, -0.03505220652498683, -0.05245948079076326, 0.07458556798784206, -0.026726015310244686, -0.01782817232711407, -0.110180722802867, 0.01548967883590638, -0.02801410181546772, 0.01721759481777511, -0.012727161782046482, 0.0013648165841797615, 0.01596073831064355, 0.0036981660358677984, -0.008041942973288516, 0.01176810240301536, 0.00942163900088564, 0.0012843972549521903, 0.036434191643975586, 0.006996298709153574, -0.016752787397641057, 0.06532687973169006, -0.0073657621789231745, -0.11808924492781714, 0.027137919483801856, -0.022578090709123682, -0.012249664658616252, 0.022148306542872375, 0.009642358277480634, -0.0030384551646317056, -0.00764359115715839, 0.043569442185515075, 0.017109218462727893, -0.01055313326575193, 0.007798816293547256, 0.017278901885725815, 0.011550445713591536, 0.07623507719322588, -0.02271779232640103, 0.03135390286209819, -0.03100224062387684, -0.0036375156275441837, -0.0005819163020514709, 0.011395058472369908, 0.0005389097774853354, -0.009387709760944366, -0.008664239548964395, -0.004402966652521952, 0.010229675486684887, -0.006996663191301364, -0.004721952334895974, -0.002487831935973966, -0.01368062487101393, -0.017057519342202156, 0.01243107236245028, -0.011000928848897574, 0.006384621945457168, 0.015004664172341885, 0.021631854024493895, 0.012912246840536363, 0.026284481148817568, 0.006311200870967288, 0.003446721511479227, 0.013379711907220159, -0.018683234676615153, 0.016243997930455643, -0.01060410803627005, -0.02231995170382012, 0.010601590824459356, 0.006535285130075107, 0.010060386395556882, 0.019977359158329523, 0.01959792138165057, 0.015003419812277393, -0.00122526679353208, -0.02737807823952453, -0.01192022500813734, -0.005745980700420496, -0.014674658207854838, -0.0070774182695077185, -0.03896204251685502, 0.043713879073360454, -0.016064575155552933, -0.01556302675546305, -0.015084358999198466, 0.0074621235888809295, -0.00385473721866616, 0.09167175607278583, 0.012087501897826595, -0.009355207535869717, 0.07335578579049137, 0.002122993297522387, -0.0005740669551710561, -0.0350936593209666, -0.031625958705076944, 0.00930460890825803, -0.00014387281932747736, 0.024138365720551665, -0.015130179311607404, 0.0002826887167949315, 0.006647717928457069, -0.0062842780206522186, 0.007413571437784778, -0.00645215908855314, 0.0157655281996169, 0.06984276775712644, -0.029757447689508124, -0.00724194178723068, -0.002105711685887339, 0.064631236201865, -0.020333427405438136, -0.005517492964661897, 0.009380735038914359, -0.014967622510457346, 0.017849360794614706, -0.0053540726300372815, 0.03430092820085918, -0.01131706149961445, -0.024360062233443718, 0.004627280308257813, 0.08017415514135356, 0.013453409236794039, 0.009133617415020855, 0.03850689078162542, 0.0038929775257939767, 0.013237650837810245, -0.00818091578139633, -0.004768433291614263, 0.007371086090410185, 0.051298876319987245, 0.022472276357456814, -4.0534266147775126e-05, -0.020409418885862812, -0.03376063916329844, 0.017069959560427807, 0.01840121111610197, 0.016799973358787492, -0.0024761261147971435, -0.014358472999438883, 0.0014280348210431648, -0.016780231701653193, -0.015346879733700757, -0.004241028464437917, -0.020974814508608604, 0.06370372851052797, 0.02610960519690517, -0.020040560530375524, 0.012340300118164501, -0.0014082060572018769, 0.007247488865612751, 0.008487612826859722, 0.026427843223630412, -0.0068192784448822385, -0.017661071726628716, -0.0016197034636814076, 0.06467524638914492, 0.015276872162146512, -0.043912245886661386, 0.007716107044939284, 0.02196869822638725, 0.027433845843041302, -0.023467273224772635, -0.002823742685122397, 0.010790051586057453, -0.00889758090566331, -0.01333470475398724, 0.004888597839708261, 0.010081751872334217, -0.06452903064026212, -0.01447272899465328, 0.0017484568814679444, -0.015307838253194055, -0.009176103226436244, 0.0007606244342118597, 0.004838299524271085, 0.0005409536881569749, -0.02287874442674561, -0.017252282046798684, -0.0881281541499198, -0.01782824957119804, -0.006443598007272156, 0.007867816706408619], [0.6083971154591332, 0.33286130724379187, -0.5453612976824455, 0.4879487817432406, -0.259265486868997, -0.3532262104749082, -0.2188871770443957, -0.4700809715569354, -0.2887562812690138, -0.1334828696033703, 0.2722248747256537, 0.4088851684782137, -0.18020250634531923, 0.38380714272952354, -0.1582560517041209, 0.2599584520562812, -0.23772050776307702, -0.3155421744611557, 0.5060240372965326, -0.10289296205086387, -0.03946082620977923, -0.23008706736830684, 0.038691759649690016, 0.3115874078931966, -0.1081412309577766, -0.12001795972342613, -0.10984687221058674, -0.16516260409390507, -0.1639581733795148, 0.5110769538789413, 0.06035950520482802, -0.12866645055012216, -0.023417940593806804, 0.063172461573295, -0.07403305267255214, -0.028313103233376085, -0.1428627854738394, 0.004258649719433279, 0.09947655154659439, -0.05592873326328351, -0.07832494946022324, -0.09616568838732004, -0.17215725949991487, 0.37619578368941486, 0.5398171931588523, -0.199629837738236, 0.05249446141994581, -0.13501779472443395, -0.11350002237116984, -0.10921959291377865, 0.19017686809811385, 0.21952953678229897, -0.30564985408159345, 0.0783312087361872, 0.04901770401439896, -0.40695185559732744, -0.193158582496413, 0.3370540357773638, 0.07023086693982349, -0.0967720802305837, -0.013098253898027776, -0.0031732430481968225, 0.5455046474961486, -0.12729706748348213, 0.16358791725602426, 0.017755122905549883, -0.2216684181969778, -0.11791564933325399, -0.23048201003378332, -0.11660646197252994, -0.046279332291181446, 0.19118513132277087, -0.1881377634658638, 0.4479538569198329, 0.049224663000775326, 0.010333262978653918, 0.23100023481341342, -0.0956566797524986, -0.0814415759809916, -0.1462328102197088, -0.36021181711697065, -0.26048160475483245, -0.12269576657220696, 0.3481408815095382, -0.13772001374480639, -0.002906475351006766, 0.024309188397677185, 0.10617215852487051, -0.14126019448032157, -0.13359952630675243, 0.33573283476496674, 0.06816895345504556, -0.060293339709654614, -0.006009113760635647, -0.050757727980132006, 0.2980866924238442, -0.46620927043963833, 0.30404028477451145, -0.07680875608274892, -0.286050503826166, -0.19642933970447693, -0.1417617726080606, -0.1803866575717111, -0.029233168996483375, -0.12371638122372192, -0.11003708748225999, 0.023458311788825986, -0.12039782338151594, -0.08119347669165303, -0.1348608015359479, 0.18259469212508633, -0.06629469098535061, -0.0980597053050023, -0.11708736299063983, -0.10333296225187948, -0.038614431834919076, -0.1297859437605716, -0.16157318466064005, -0.040548938326656715, -0.020826682801473782, -0.12589518244348383, 0.09826345482943069, -0.011103147835415517, -0.09229746759379857, -0.030119799156776362, -0.09504480425189521, 0.1460196826485044, -0.1537954974632902, -0.1996541873141168, 0.27077518111168736, -0.1965766798651044, 0.08373537779749465, -0.12642492974364633, -0.2188785459518045, 0.09619863585386597, -0.049137097205460493, 0.025628695955684663, -0.013884821191165294, -0.07044688533116839, -0.18283065521748393, 0.26554825449447766, 0.19664271370093198, -0.05901623510505363, -0.19670912993082815, -0.16349742975799092, -0.008928002669269923, -0.09789521158980682, -0.09105066593444605, 0.03519899936563151, 0.1465841464367555, -0.12637161184843526, -0.11421708214866604, -0.08121028648749294, 0.13178846966032157, -0.06044250924749705, 0.07779459544171438, -0.33651232300457107, -0.02037606139194343, -0.16727249949738351, -0.14569292884519672, 0.025434444237281376, 0.04322547416217685, -0.10756832274245441, -0.006866302970077072, -0.056340474912837564, -0.06019309583616071, 0.12831445494562693, -0.1673873775515292, -0.22136518542663003, -0.06145553427080184, -0.08696159186160261, -0.02029810930045603, -0.10408869155308835, 0.16083186502808916, -0.14609430482807112, -0.10324736980340492, -0.11392143034254654, -0.1162053438576537, 0.19077439082814848, -0.008098865020805658, 0.07126803269680143, 0.014325354032373405, 0.16590372407370196, 0.14283921944064074, -0.05760230678274781, -0.0883943056410621, 0.26388740136387207, 0.16698381794451606, -0.05932361127893073, 0.13319548505777246, -0.006874638777431668, 0.03932052153239294, -0.05556541098272331, -0.08459556546959433, -0.08802039016023375, -0.08553580620098415, 0.12452459854332332, -0.14247363130285917, -0.03918653492336929, 0.09072130892094911, -0.09590658415724103, -0.03071112649580314, -0.04658146451235811, 0.01546442234809436, 0.30174152093058787, 0.18726933346657437, -0.04768276920698635, 0.1736309055432112, -0.07669244938813331, -0.14302319822284965, 0.1407425853814332, 0.048735504126772536, 0.012421096018953994, -0.0700420680532515, -0.1563439296354585, -0.03640754373953, 0.10979952796432381, 0.18162533888921134, 0.18882255323022754, 0.015458036877099285, -0.0593503775434259, 0.012555919004481195, 0.12541327743778755, -0.1061730220828176, -0.04786627438192271, -0.11861555830507693, 0.06216798606843418, -0.039535644536677836, 0.1825943141600824, 0.13508765876974607, -0.009884877878710422, -0.10915729566940169, 0.1433713537384457, -0.01109896615542359, 0.05320821728477721, 0.10050903369247063, 0.06825424941452954, 0.07861295747932662, -0.022351182125072012, -0.017176987019969645, -0.02038980362826277, -0.023616370560369936, 0.20306684131718875, 0.07485223896865287, 0.12723979538482905, -0.005850309153652727, 0.10232712882343617, 0.10459291523318344, -0.026450072403423563, -0.009244037664215585, 0.1666995000480914, -0.11429581731486343, -0.25074361735118705, -0.06009653471162396, 0.011799332882281605, -0.11324461502237475, 0.08270315378033248, -0.2027210084746915, -0.11459845832393806, 0.0076239423622542195, -0.2781775487648983, 0.13512090070674282, -0.20250014573622455, 0.0715364708210329, 0.05766622101473453, 0.05515980574420734, 0.0038602625135438703, 0.11231475090024637, -0.012796439929840458, -0.10501135920806055, -0.000913840884694967, -0.013268704227281394, -0.006095500777843734, 0.08598208353514113, 0.04345388213365825, -0.03376809474934474, 0.022032962085398886, 0.02406022551738623, -0.02760198611705285, -0.05092108571221736, -0.061972508769751807, 0.025435679958741346, -0.021551983635845977, -0.06579928146795115, -0.014789792604759537, -0.027200139004418727, 0.055218259809847604, -0.06151034035803522, -0.031251131755118684, -0.059439005790400914, 0.05549604988387721, 0.11359361863062326, -0.16756784902821228, 0.003113538326283919, 0.10575829851169453, -0.016336714054264623, 0.0557177285853691, -0.03132452903853923, -0.010128281618264665, -0.05747947194797218, 0.14844540476601717, -0.03296884020785711, 0.04076244319953152, -0.0634678434356001, -0.015881633041598446, -0.07113892859115582, 0.12458420922515201, 0.12383527200315224, 0.05228190562732644, 0.06187320885987953, -0.03528354675349952, -0.04651782826754673, -0.09254796406107281, 0.17273519474841534, -0.0032546657474187756, -0.04349009242184289, -0.08542373779673257, 0.04968999335907559, -0.006144250864852591, -0.19733905926203146, 0.0010653448687054545, -0.036555321129584935, 0.11021337443559977, 0.0162879579821264, 0.028499553185582442, -0.0520992507353925, -0.06308806997334497, 0.05386905903597297, -0.2503350124468682, -0.07444157219926896, 0.06339992609905819, 0.04522378107758325, 0.09189851435922927, 0.16308156487385322, -0.34113576852693417, 0.22078933191164582, -0.15078676438925803, -0.1092139872787889, 0.018182945077083543, -0.019096314160977873, 0.12774060509101476, 0.008821963775020732, 0.02227231051821503, 0.04706873658444266, 0.009900853694384528, -0.07877646023850055, -0.06858114327539794, -0.07061518460246621, -0.057669797264932626, -0.014534964472411512, -0.02086745758106707, -0.042395774131892744, -0.016973514437285325, -0.07338072955969588, -0.00859823157782726, 0.0250505790211268, 0.020973749345064005, 0.21504348117380168, -0.06343580913539475, -0.04487770464695937, -0.056074866269944165, -0.029631068310079875, 0.03722643938958854, -0.045834195374783886, 0.027399129731719454, 0.12060987651873355, -0.012737560690934626, -0.006630469219606358, 0.1447409859821966, 0.0033716688410592027, 0.1609325762491162, -0.12918787368882745, -0.024565579792735336, 0.14702148021036726, -0.2171881237237976, 0.04855238272263484, -0.031064202254081304, 0.0489906658167641, -0.02783716757732666, -0.1373155707936888, -0.1023552014253061, -0.06748302180582946, -0.21013243960076278, 0.07347503471546606, -0.01804085651795384, -0.04002048486814232, -0.1341100849322259, -0.006374862413800074, -0.07782987196638981, 0.06715668561302322, 0.1450500759550076, 0.10810019793671163, -0.0045369568091940884, -0.015297323637764305, -0.007223788806789384, 0.052634142712918025, 0.25528496981526533, -0.016952399972482962, 0.1264399533956437, -0.02047129173396931, 0.004630794671946396, -0.025326672461927525, -0.01195775771879837, 0.0604197405248049, -0.11167022002629037, 0.0886333273860346, 0.038522464391730696, -0.04187222824995037, -0.04336505238491696, 0.06540305854065676, -0.04655654234370875, -0.010369862566217277, -0.037750030762442086, 0.05212439469748065, 0.029830931963681535, -0.07511451945248218, 0.04869633509891868, 0.007303187876229869, 0.02783326902930092, 0.02169884428706642, 0.019845051174108022, -0.17032300360324587, 0.0691091225236218, -0.001586417533118231, -0.002176150560312913, -0.06077484354022028, 0.07930681022007209, -0.026738370643413965, 0.0884761611357647, -0.08077572042807236, 0.036067604577973686, -0.0001626932296830458, -0.02762166083021186, -0.020212454637063004, 0.023832574393920877, 0.1009885688648863, 0.0657670699591259, 0.02020217836492281, 0.00593078303118838, -0.008500526256896271, -0.023657606025593185, 0.03275212823503691, 0.006261825197612685, 0.020569872630547357, -0.029023125001941437, 0.0021535256140878876, -0.026737712708200544, -0.06105372588923886, -0.014845603940408804, 0.017055256604540193, -0.04841299435198967, -0.10097957995983031, 0.019471874640616907, -0.007337056756809872, 0.007905386408155508, 0.0005994999443329398, 0.018501750680868043, 0.11187674852281901, 0.11490402495606543, 0.09570253175684618, -0.18478988318590192, -0.0465000094214791, -0.0038598306587795134, 0.023750622370149403, 0.004503979584950873, -0.004959987373520503, 0.02205321861416762, 0.0628470386774315, -0.10539909114395632, -0.04517290639647699, -0.003772587886668125, 6.399600046154476e-05, 0.04708507667183096, 0.05494903900081117, -0.018153348766377156, -0.1267622865595799, -0.05818617138425476, -0.03197852575959901, 0.15627400631241128, 0.11990671391019386, 0.01146335502812023, 0.003777227409946276, -0.11914440348786015, 0.037250332551599465, 0.24361597547966213, 0.0758951871400072, 0.011046265622173462, 0.010582620361569553, 0.14371531961571302, 0.09004885672738666, 0.06906267957382803, -0.04682113452422956, 0.02147549288631678, 0.012718022347247655, -0.030190646290074685, 0.014367166362416688, -0.04543217660497523, -0.10852752598213972, -0.006993490463395669, -0.020435509110684813, 0.07529187659673182, -0.0039012133517482995, -0.0376013005785301, -0.0008144687658330331, 0.13843614868266002, -0.007118485988050805, 0.011147687248095733, 0.021539320018571298, -0.0627341522590768, 0.09271651689337712, 0.36057817848338247, -0.0541897066686276, -0.045339354670609754, -0.01609029451692822, 0.028851033010778935, 0.030048402318489504, 0.03162292534781696, 0.010864433729257602, -0.024734532151331617, -0.03794001981469739, 0.003142198753896684, -0.05557736555717928, -0.04725566434941724, 0.072616228036748, -0.01628021973522563, 0.04287133470560245, 0.019315830624360812, -0.0004388348915623074, 0.002992367447101385, -0.016875697358969374, 0.19486124379138747, -0.06706195171654786, -0.0031604489240627436, 0.05704341049835214, -0.10591652663594803, 0.025554662303484098, 0.054368577485312486, 0.0017485120294389407, 0.12134179848927094, 0.010364524461402244, 0.023535514977284247, 0.006577933167599973, 0.004113416155035514, -0.05654641840047689, -0.02268932207489395, 0.09406936715061004, 0.0009111294304490836, 0.0773321319245338, 0.01412976556266013, -0.05195456613249765, -0.09230780629548604, 0.03443930570494445, -0.04605107881677527, -0.0037767304597117746, 0.20081586538430923, -0.040424233011725694, 0.11615679262038574, 0.004718083593354464, -0.016466301417857068, -0.024763110434749113, -0.035005738232359127, -0.008786212897552612, -0.070062693514456, -0.049502184301336266, 0.0052721119628387405, -0.00047749869105514955, 0.013657944134806603, -0.04347045170555881, -0.0163396916737022, 0.08997217644354952, -0.00824651829575122, 0.028549539810726807, 0.019052139931863922, -0.027840038598067874, 0.01964799915373676, -0.028557080012233588, -0.02483936799897722, 0.005681461760743473, -0.017628493853946648, -0.06753126062267924, 0.017685112787613845, 0.02052676160040466, 0.012268299869761592, -0.0028133739204335285, -0.009411013363931164, 0.07687458688773768, 0.02326319271134087, 0.19528639051728094, -0.008854530357451776, 0.027607408526596544, -0.06074819019655085, 0.03829781324291985, 0.031771208372185444, 0.0051848045228870526, 0.0006202723158074408, 0.007411676475270001, -0.038568694597087956, -0.054634314429746283, -0.006835948142854516, 0.013412413165535594, -0.01215257691968516, 0.010309117621813335, 0.11488813947390589, -0.020461991706327256, 0.0008003477556166226, 0.0011222564532399793, 0.00024752223056881623, 0.02459027208759254, -0.0006605055615863155, -0.058550275972207404, 0.004184023317712546, 0.01736247839613945, -0.11791044777674105, -0.017663489444794334, 0.0007763053931143724, 0.03108242927525873, 0.0621436910129947, -0.008595381386098281, -0.11252254532798249, -0.05711990244367507, 0.0034434125862561477, 0.015521573065708755, 0.009555808031476725, 0.024310518466775177, 0.038325946135940286, -0.015145298285014062, -0.1193185267556564, -0.06464184227269706, -0.07800079933997103, 0.1511433185208907, -0.020196838342351288, -0.008426654962994466, -0.12517853541630405, 0.004134734111095855, -0.03374252230166227, 0.04032352670875232, 0.04471250970174983, 0.0723356705104106, 0.00030007091808962965, 0.00955055136986836, -0.006437289278762715, 0.022609110109697936, 0.18265777571400024, 0.0033636239861364794, 0.03498360237257787, -0.0028401077751565246, 0.020208227968279913, 0.13263860993518153, -0.0043267271509082085, -0.22796629535711405, 0.14168988130441185, -0.04724953260496374, 0.0646707162746962, 0.008354203219655527, -0.01634254155399235, 0.03609524244394917, -0.05561903504866234, 0.06817891537135012, 0.03372325696983095, -0.0058111940388048035, -0.0039679019329067824, 0.0711353469284996, -0.013076709746803026, 0.14412202475888908, -0.003905768146296575, 0.0885804505521133, 0.0016542147092909118, 0.0618577725208553, -0.18931017086336036, 0.030385512323955928, 0.01142397723747495, -0.0038848553400655113, -0.00682056977000285, -0.01829631973041913, 0.01698034716232723, -0.048733923862042616, -0.002778301838497915, -0.055402204528666676, -0.021039830588835306, 0.1330179286677956, 0.041611154904378236, 0.026774900028339294, -0.009897072859524271, 0.029675699674828783, 0.024712531935899843, 0.022945655240553472, -0.00872561609111465, 0.00017773633228182137, -0.01283546527911645, 0.01333215844192005, -0.04022486865219578, -0.0006197231248082127, -0.009651711380260343, -0.0015105035074986818, 0.017707623321828098, -0.0012809120477342588, -0.01148292408809333, 0.029962676503438944, 0.02146890473375107, 0.028839284796777755, -0.0006947406037088773, -0.08526734667705665, 0.049819578234845646, 0.0074112547886412816, 0.009617544567407165, 0.029678326614757708, -0.00951723567985503, 0.07370650463488676, 0.03063104200201273, -0.026496140372846984, -0.03290608342207403, 0.03804868774423976, 0.023388645179935857, 0.2017821985052289, 0.03522018433653171, 0.0009394101656333849, 0.16298963639586247, -0.09187650120360193, -0.023070982705972964, -0.10400091089874007, -0.08810607109732022, 0.02057511063778498, 0.01058804861408183, 0.00624014672368607, -0.04915992158212734, -0.0047173488780767395, 0.00471554112784483, 0.0055853563613448495, -0.022067945233703888, 0.007840389377135744, 0.02270274553894413, 0.13545140296142233, -0.07654935859678266, 0.0038916921547103587, -0.006541923388313116, 0.08733884839419749, -0.011306290513005982, 0.0012176034671322958, -0.01429692919193387, 0.00202527136642684, 0.022564846165503055, 0.00736651640874767, 0.07705594114642378, -0.004191480108829899, -0.027815733905314, -0.011734047006751552, 0.08866036612054543, -0.005375442589546039, -0.004228419397047557, 0.06738656795698347, 0.01597356530952005, 0.005254710258843971, -0.0133991638659032, 0.010008911926842145, 0.0011592996031713134, 0.06534417975267405, 0.017708015074786025, 0.013937433851565074, -0.008194342712873235, -0.07127778044511329, 0.020815940155945085, 0.043420181525699084, -0.008304368517851731, -0.005432805934319569, -0.0019046822155804291, -0.006515540595996824, -0.03159003828093941, -0.0633062687444681, -0.026702852362170588, -0.029207621948945054, 0.11047767031792607, -0.0020435930312716955, -0.019222978992415492, 0.015308001530891553, -0.019415764767271918, 0.02808114354892726, -0.004112050486840043, 0.040201098259472524, 0.015443540479454102, -0.1577622066481322, -0.00037222070038895466, 0.09366458744037681, 0.007828421108878141, -0.06870713089130845, 0.01988969412459699, -0.0006193008424985047, 0.04727985499617132, -0.00683611943231399, 0.006618004977034778, -0.001125140303805003, 0.004144386683921033, -0.02003075532581817, 0.0052681523291358, 0.04531621872136217, -0.07745408346784452, -0.011872466102187286, 0.05105750699646989, 0.0011249010264827199, 0.03374966293912684, 0.0412344496267635, 0.01196988804265204, -0.015046317170827404, 0.01100225576569947, -0.017027262494403145, -0.17268733040278908, -0.013355118356405406, 0.006628550955781742, 0.011538432562573914], [0.0035751544418207238, -0.546498895664666, -0.1260230057346559, -0.5882769793920226, 0.37486768451378427, -0.518401503208783, -0.07918216428189007, 0.4285946484473354, -0.2385814402582969, 0.03179238140019379, 0.07743344022470543, -0.1923826168915353, 0.1090552933742537, 0.05119454338958694, 0.2261672099468361, 0.08899722687786163, 0.0038096406688442126, -0.15493561933021166, 0.7701198770230664, 0.5429623632699602, -0.2023541658476531, -0.1613407845846976, 0.45825278323973423, 0.3582970053036317, 0.002710580435261657, 0.5347088201296595, 0.3472971156954667, -0.12272480985773067, -0.15116723656627853, 0.6895177321751532, 0.37674690759520596, 0.29240046232078976, -0.09914535089610979, -0.22093058001310684, 0.4078746673770455, -0.14972784025531535, -0.06621909656200148, -0.34934904918561915, 0.12569933368402536, -0.15472462313337848, -0.2723570828366191, 0.017768090841466386, 0.21203955640165623, -0.36009036666852107, 0.05712305266503979, 0.07613524216158912, -0.25506949013307917, -0.1811440466823595, -0.08218360650254096, -0.07279079812616678, 0.028465448619222018, -0.11349496561591976, -0.1901638130436155, -0.10973136496203739, 0.4119176762076388, 0.01752618562464448, -0.14873148256236468, 0.030173006197399318, -0.05179654865880568, -0.007955222456339808, 0.047422887247113604, -0.08899312099933436, 0.08294248644558526, -0.14494547694188328, -0.020023853922267347, 0.17320655825498063, -0.11026259495384302, -0.1183796521645081, -0.10800698490035925, 0.2964940718766502, 0.21941965608633196, 0.016150177772875356, -0.14820659581447201, -0.056924525064799225, -0.005106993780266967, 0.09744475413329529, 0.12278997259395573, 0.11109326356759713, -0.04990290161304631, 0.16043368434287816, -0.16233549870337777, -0.3166402798143972, 0.288060672703549, 0.07258412183745845, -0.16664613020658187, 0.27242488519739705, 0.1372146153332195, 0.05591891710138057, 0.1849217815711533, 0.0797486623547075, 0.12129196905470231, -0.06887362906726258, 0.04263280743878611, -0.13369865102092, -0.1434299352530703, -0.19070054357222596, -0.2198958388542147, 0.07581506152655632, 0.5200984245357385, 0.15964284653128807, -0.049735744981721695, 0.2552394234560445, -0.1920953178034577, -0.0781072463580516, -0.18849353471085312, -0.11232834201912292, -0.11725737615378076, 0.15680673307329332, -0.1143698783657494, 0.1731330673800888, 0.4746305801247881, -0.04448402167360461, -0.13000715371107657, -0.17887744182247892, -0.029241639836436902, 0.023010060382495114, -0.04147745270528774, -0.0395005658508704, 0.13953562886214135, 0.0311408913571779, 0.0060467784251727495, -0.09860381222340255, -0.048666263101843736, 0.15627856937956305, -0.053957140109910366, -0.10962022628317362, -0.023645209636809703, 0.12747188179906238, -0.11282843231772494, -0.29309557173942064, 0.25656119514237735, -0.04076574919275638, -0.12407008875061869, -0.19343008352147728, 0.2651227332403361, 0.255879036395947, -0.032096745906595336, 0.11256201110314534, -0.059095517934512905, -0.029616470896532732, -0.2191271367778415, 0.20655010217567246, -0.05291841704309798, -0.13949993208900818, 0.02138337305767027, -0.040489501277576175, -0.21298317590805876, 0.40969060517893713, 0.14122871792091155, 0.014648523451349931, -0.0481734105070761, -0.02940649902622543, 0.057226626828440805, 0.005571613085260358, -0.09495990667100562, 0.04670908759198498, 0.2337169768218642, -0.16575020238781027, 0.07600658064013048, 0.12534850674867373, 0.11431887711614884, 0.08897535277008323, -0.17319358268734913, 0.07884879688348742, -0.08757334534066831, -0.005716748484838573, -0.026716107412294375, -0.022894211505577876, 0.38978044192994593, -0.13402351703986448, -0.04852025190706905, 0.0783366312015461, 0.1418115839971171, 0.044773450712042785, -0.11422570077634131, -0.09800970441593275, 0.07460626476868745, 0.14628740984128735, -0.15805396623435916, 0.011027408343543045, -0.060607961072526195, 0.09107477027099577, -0.06793316344743058, -0.10273978926257653, -0.06447882556383225, 0.015499055736139439, -0.10394552786101019, 0.061965268977046344, -0.0971370837972507, -0.08267694619854596, -0.1624004204259457, -0.13094902615029583, 0.05390704472816903, -0.09628376891385267, 0.055275928399110975, 0.390073095897101, -0.04333813806023563, -0.10969798794658867, 0.02781365621271854, 0.003204008411040876, -0.07207276404768898, 0.2978687710526704, 0.05762743648790763, 0.0451297274043782, -0.05884774286601607, -0.010237724363928627, -0.05131669774811929, -0.10924596977190719, -0.07297271785809001, -0.12558189529752048, -0.0871645741922729, -0.06523504145658596, 0.09497390260795786, 0.1135778949528407, 0.3383930437296154, -0.053916113491414, -0.15862576354701124, -0.03162391727401184, -0.07721548231211209, -0.008174455718332387, -0.11927609348816931, 0.19132534643362756, 0.006747152572397305, 0.013084366118371068, 0.22199104769703062, -0.3179456255445065, -0.16554178000852948, -0.004936415659627153, 0.12963897724851883, -0.07838815070441549, 0.06331867175851753, -0.010250186669067837, -0.08016663776802373, 0.03888068221931861, 0.31533876025161567, -0.006933791311989445, -0.06770446849450319, 0.12773047456378983, 0.03653871830471201, 0.1950175565070344, 0.11179926279873151, -0.17862268280597735, -0.0001541646815897041, 0.2307600595166541, -0.07355635506575461, 0.016685725443152118, 0.03750991329858151, -0.01304106510630431, 0.1449270467515208, -0.033008074805212166, 0.19605194196058068, 0.05511649289056166, 0.22244340240820037, -0.18701146514057393, 0.06248153050422976, -0.09920642046559408, -0.14248444635199375, -0.08600895854268237, -0.05416887359305157, -0.04558398519649093, -0.17238633602081754, -0.011788084191143093, -0.07226560415347257, -0.017760831866368926, 0.04037072750165168, 0.6467153107106501, -0.00081713057128667, -0.036286912238473024, -0.09654259430935817, -0.03185286022363816, -0.026711764838165217, 0.06517260536451411, -0.1003735842701625, 0.017898446753978274, -0.04555187282511342, 0.0449944002170677, -0.0663452693196276, -0.08853241026712155, 0.24587208812683023, 0.0847322949044721, 0.1109427388484029, 0.04970811692379422, 0.18185750889203334, -0.130802697714163, -0.056523525250010254, -0.19467440637795141, 0.03325849875622674, -0.06081621454695438, 0.07523228672637586, -0.10361871282958378, 0.048860266371276384, -0.008778303291908335, -0.0888946134060313, 0.20777831430023228, -0.027963502799474578, 0.06044589781123381, -0.045278626342497054, -0.0011083029547133312, -0.018240785532882817, -0.04680528172504623, -0.07697762048830893, 0.16277469399272704, -0.023100259234172624, -0.0088799230065738, -0.04320773802121221, -0.0010753766667097662, -0.028421401055706, -0.046356407244110574, 0.016740566055105256, -0.013587816994088137, -0.03145476684904541, -0.02188300304163212, -0.0356689890591785, -0.11290758502938077, 0.02380680585660111, 0.12805150521180841, -0.040388129076829656, -0.040272780711210085, -0.013768078846776848, -0.06657541876996631, 0.15355421990342172, 0.02525222414266055, 0.005040744647826489, 0.06675929567176231, 0.09324266252640188, 0.026937721565088744, 0.05724260164655199, 0.014606333087238556, 0.05264787304043621, -0.019912861008163557, -0.017587244148882648, -0.16133072974509483, -0.03403515981566064, 0.0026319802324238917, 0.051285825222125596, -0.045223563609426795, 0.045435783404130875, -0.2016683110504031, -0.06297042348264593, 0.040283880229299934, -0.08165385017931903, -0.13690574432632863, -0.03215219768640182, -0.010690052785119208, -0.00040423636681464255, 0.20491929993869568, -0.08060489706875859, -0.08929154790110458, 0.2862577353503902, 0.010024054504155005, -0.17713918783459026, -0.044317669800913666, -0.07089664950940786, 0.03012676043935838, -0.11603058737611607, 0.020159152947000245, 0.1323285640121808, 0.045324642610689816, 0.0649336339777282, 0.0028066527632103705, -0.15677356314231325, -0.07327741205664065, 0.006370446815307625, 0.12291076430105433, 0.08370188253960775, -0.21089348384017664, 0.03222167338705122, 0.025672155121585324, -0.05988141232209997, -0.036468503973017256, -0.0502544092500804, -0.026898476996394395, 0.0361026524693709, -0.08374778379608641, -0.007180614238646743, 0.005985288836453165, -0.20533704733518338, 0.01224273990841759, 0.17871770561109374, -0.09817068767114728, -0.011560877229411392, 0.14872126443826458, -0.027833883052798537, -0.010015120373245064, -0.13840164755567005, 0.08959817217019084, -0.02596008167900693, 0.05590710364037856, -0.1878163692723952, -0.16378855071398657, -0.014038098561659773, -0.017035089442431345, -0.022827835754841444, 0.14799576558512806, 0.001334234441706457, -0.0016856487867232053, -0.011862855726862732, -0.0881373211234977, -0.16767461736302314, -0.005284573544827417, 0.0504857276936475, 0.0005925415936762391, 0.0665766382540096, -0.06410332183847713, 0.055506030912118906, -0.024519263480140017, -0.010331981528192605, 0.12619422112868067, 0.02050783267093468, -0.021047511974670134, -0.0065239760211703995, -0.03692951933914845, -0.014390610451135773, 0.01106190506764256, -0.0017859615731352996, -0.10837083274450707, -0.039495421055250945, 0.021432858949545105, 0.010018756781996853, -0.0021560209464736566, 0.018782793571812034, 0.01963537770349853, -0.03364414716141845, 0.04793512873706896, 0.010969536914878193, 0.0422185808215733, 0.014903212544653002, -0.15765433393948675, 0.0037090812726136625, 0.28063196696308446, -0.00041509259712325117, 0.0006645905946953924, 0.023754583381505177, 0.061150294929593126, -0.03531215370842097, -0.059983043811348426, 0.0002720492542405477, 0.01874891809849754, -0.11867377747199268, -0.06195910337113532, 0.003819533881318799, -0.03491220625173702, 0.007395555854924932, 0.019744457032773454, 0.0013039400154147497, 0.24434776108947323, 0.000619973704341131, 0.016015245054144468, 0.06587154647035057, -0.022936919068963564, -0.03424633987629799, 0.00283642029007445, -0.06995362204941943, -0.012149205249681343, -0.017619964587259566, -0.0001491055849360696, 0.010385063373187104, -0.047843104861792066, -0.046850960508684356, -0.027866677255967046, 0.000619771596298306, -0.13262237881128358, 0.002634147410809583, 0.0054058062879520224, 0.0395213685336852, -0.030116106154447247, 0.009919952271807088, -0.042672327826823966, 0.22150670308458595, -0.004776804720947825, -0.015760616162210823, 0.03192755941334651, 0.01723552958869165, -0.09038391629666895, 0.1583309747032781, -0.02321790201084385, -0.048965654677825446, 0.10161233708403752, -0.029183911603791572, -0.0492320618998478, 0.011513631821718063, -0.02468095864865091, -0.19529702726944798, -0.003554384061062828, 0.0020511816799995094, -0.026245509903294148, -0.062470888444585315, -0.08408208484427271, -0.020362858826800334, -0.030726633845893237, -0.014463760564615468, -0.028355065096382265, -0.08731921869014868, 0.028589309809303905, -0.05592258515320476, 0.037032238170512745, -0.0677672358367177, -0.007711001764392092, -0.07113820368554777, 0.0065173741888896065, 0.022359448580140034, 0.22627587210400324, 0.03878269751868223, -0.003274804462891418, -0.04912527638464196, -0.02192628016071932, 0.004937306698021995, 0.025015171250548647, 0.13445036288559106, -0.005825642333128325, -0.2832245029916241, 0.08354263184175272, 0.06801433607217686, 0.011816587031876036, 0.004846266140025854, 0.012710847607512133, 0.03892449558826762, -0.024551559250220602, 0.06159430148633387, -0.03979016722147424, 0.008318398194259065, -0.024928505405716686, 0.0012594774024804007, -0.041858396310633664, 0.018413947888355396, -0.010380124974058028, -0.03785202365427524, 0.04054547316404587, -0.03121285271464891, -0.021560328090043934, -0.07966603781592763, -0.001978574173866577, 0.16232537313225037, -0.0020864712951988796, 0.040717802955314505, 0.024279975591570083, 0.0123331363500528, 0.06826012519148927, 0.1484649972748575, -0.007707714920749512, -0.01417073024301996, 0.019802945433793646, 0.004248594448384549, -0.03151361454110733, -0.06964873136837435, -0.008221103055953465, -0.044340082257669174, -0.058331401044071515, -0.027100472023150763, -0.09010201357944422, 0.010491316492739914, -0.04288112914202814, 0.0021415714680240684, 0.06405474581343773, -0.1838850335845788, -0.03489521233280804, -0.0781748198878823, 0.008312383078578685, -0.004670736127505064, -0.004306101775473678, -0.06520770375135687, -0.06326410757082844, 0.10492064286623831, -0.0004480088649435566, -0.0001999789812703508, -0.0009343892243854944, 0.009875487946895087, 0.09118034772201992, -0.0018903764425781762, -0.024934671167926196, 0.008722167729005428, 0.005633384353276677, -0.009981120680676234, 0.1173832723683315, -0.007620869971336996, 0.022070511292365314, 0.008146802808447987, -0.005122856194779911, -0.04236863383688086, -0.005302750377948304, -0.05998760496052971, 0.11063756641511446, 0.06975255430992254, -0.00904881702296919, -0.017626214385849822, -0.013203403786630775, 0.01603497752030443, -0.025785192277847487, 0.001022954851838557, 0.06528052328778369, 0.133304308268274, -0.028903917973390994, -0.035539034308530684, 0.044220469894816615, -0.011591784802827455, 0.003715622327610144, -0.0714569230142143, 0.1313434823514772, 0.04404865184265877, -0.006743443819020463, 0.009221870288250906, -0.02848682243792802, -0.17927202716755838, -0.0023300775230767103, 0.16973756718849986, -0.1252914183361335, -0.08918297881420435, 0.005231457481668681, -0.07780821928990111, -0.035663741626794275, -0.017226579397406613, -0.008341430855210486, 0.02505960400406257, 0.13644219788531448, -0.01287988869948992, 0.07352657527319005, -0.03425137648991869, 0.015610752800545604, -0.07787546876218407, 0.002170324002540959, -0.025702298543753038, -0.2160932036305092, 0.022038843391500796, -0.0627808282073769, -0.004330702431690659, 0.009892273100983966, -0.014878428800206199, -0.006359798777293817, 0.010534784441368312, -0.03717435655841009, 0.05601630851436589, -0.009464778800772726, 0.0399471289999949, 0.007947771682135178, -0.029832982346655226, 0.0522591946801797, -0.038893940322924855, -0.09340380221369153, 0.020995657522713776, 0.013970350096296451, -0.0017105991716355427, -0.15689789604540974, -0.00030509863460086595, 0.012603888121445837, 0.020096922483270087, -0.00016613628242366388, -0.01809367909812941, 0.019554551121462822, 0.011206482937332993, 0.0069056093481408235, -0.02398887314135713, -0.010545743264977661, -0.13803707558933181, 0.015650189281689264, 0.008385022483498566, 0.0129984393357673, -0.06596168441770908, -0.008672259589525043, -0.020980247418291863, -0.04626822209867008, -0.04726668003282229, -0.016451794376856607, -0.004899831082454337, -0.0038801227241109515, -0.06631861313513455, -0.041233277970072674, 0.013820245221056269, -0.05438226500344785, -0.019843530264560233, -0.004611571068820077, -0.026195116723801894, 0.014044983873869248, -0.02861145788174006, 0.0135681852859784, 0.019360699223679008, 0.10095997875820228, -0.0010889934553391578, 0.0820202493525513, 0.0031960281738771896, -0.020253266751656576, -0.033721526582501826, -0.04806509074122381, -0.0037009007730262606, 0.007138038497734573, -0.04931963663232479, -0.012955495740793561, 0.010115914165316795, -0.006847977618292693, -0.03710881359678784, -0.01444341944253487, -0.03621557926374852, -0.00727869895891012, 0.009280932227060003, -0.009253792665659965, 0.021842700075191658, 0.012564773492694352, 0.042827010344156785, -0.0003292406254366572, -0.002784888638894993, 0.018019399565037, -0.005721719599394269, 0.048342874757246086, -0.008554523543752005, 0.009497752943773429, -0.019542021054776152, -0.0017476188630450027, -0.0008861898098205117, 0.005502474752349771, 0.09434782262124594, -0.007501869815697173, 0.04208110758848725, -0.02412824821249627, -0.04286465776443825, -0.07535903194286836, -0.02837226313882322, -0.017999115597430053, 0.01703664118743768, 0.017188609894524635, 0.06546685752722166, -0.02289617409579478, -0.0017893799579683331, -0.0686478139645236, 8.369298019132547e-05, -0.004289633060582386, 0.01624633351127599, -0.003941665427698562, 0.012249891501450394, -0.0012462697513335496, 0.05300973124314408, 0.03479367757860391, -0.009457875464335618, 0.029119434928434985, 0.03560495346401752, 0.009037389647017759, -0.06898815082221248, -0.010733174028546368, -0.0033048994432326264, -0.020058183961360738, -0.01785021280157601, -0.07773631119147083, 0.004673065406181219, 0.013904565851325336, 0.09870195917744241, -0.01799303250376725, -0.052776327797581526, -0.016538976995745688, -0.04365438535487678, 0.022222745556854717, 0.045135356002138166, -0.0698554189741101, 0.052020622464006384, 0.011041964270109379, 0.013594892771135209, -0.049252217466002446, -0.007217412954679314, 0.07946725440925693, -0.014198132856176007, -0.0018466218701001203, 0.031867361467305205, 0.0017492955402534783, 0.0012273985501919903, -0.03060142381288838, 0.021706185570912948, 0.03380178975653075, -0.009286435803530422, 0.06415351036834933, 0.005793213867644639, -0.07177027815453371, -0.03145022839486074, -0.04663074961228354, -0.0021608072219938515, 0.010914514596990317, -0.0028500496427582706, 0.012598211910692618, 0.025008421684553705, -0.005813683909392887, -0.0340706891521555, -0.15282487713142365, -0.0012278223101485264, 0.021140747698365655, -0.00242776309045091, -0.07157528635386969, 0.00045823210034765384, 0.15494616559828403, 0.019892508286218878, 8.565471516232184e-06, 0.010188868116213229, -0.05779045545539514, 0.0005458225760147798, 0.01661022052761419, -0.019112920065730715, 0.009935827233361338, -0.0031853082870589664, -0.042635231776538704, -0.1648962182699542, 0.020874456658997665, 0.06862537855656911, 0.001818114048170857, -0.0082366503070868, -0.01673216563922596, -0.023504201915899005, 0.002797737800889335, -0.01895492498924651, -0.1139006934214489, 0.026397838493828752, -0.12077850795281445, -0.007921114038078722, -0.010951747594524911], [-0.07590214496739689, 0.03871151111287016, -0.4089590297835809, -0.4902189898828578, -0.4100101907055474, -0.7335315667556229, -0.31835275920422856, -0.08866870807590396, 0.8383410105544885, 0.03881349045075843, 0.3010349075696922, 0.12315489907061254, 0.41917658327231955, 0.021695678504031594, -0.1243802482135078, 0.028026907291432444, -0.2142059800720286, 0.019480096415530314, -0.4167408293222986, -0.32662523057975984, 0.12120496450125456, -0.21901451551276782, -0.186066561067791, -0.24118818759702454, -0.23753241270039796, -0.14896914297685757, -0.17389382339927564, -0.08324069610169617, -0.172642960836189, -0.6257733941463922, -0.18819909198407456, -0.14162162029810843, -0.12493173870288209, -0.07361523207859035, -0.18707138117429173, 0.22628652403090685, -0.2058516478528287, -0.3004742380533417, 0.24674070963270572, -0.269307151738519, -0.02076533624323753, 0.2304579752118197, -0.16862228393274206, -0.10268973997326354, 0.7267824378967813, -0.002412704002542454, -0.09109750245492425, 0.03862294708093221, -0.15171418227377842, -0.11015077570749304, 0.03926053044796714, -0.17384923651584538, -0.11959153969848448, 0.4481146433894679, -0.29749571041918194, -0.199540523488, -0.24049273519373127, 0.005772720275531086, -0.010950330422520043, -0.03375674483100118, 0.05511783237639588, 0.08761209327910024, -0.5114389601722752, -0.14987178490937253, -0.15249518668406384, 0.1904534685511199, 0.0716976458177395, -0.08402322154368706, 0.05857060324444459, -0.16184485399408727, -0.13926081234278986, -0.36238119182836115, 0.0551258124498022, -0.030864291810575123, 0.21597505100421543, -0.3219338231303752, 0.4820530935009614, -0.09021826185806771, -0.05979924814024516, 0.04657876847952541, 0.03865451088067928, 0.1538250570474112, -0.09634123948547578, 0.5743205279256954, -0.06310789448094319, -0.14012332374888176, 0.22201169008195634, 0.7012372905708214, -0.02302114938664594, 0.06484604818047487, 0.49328473002142087, 0.09089641341570144, 0.19897725516978518, 0.12496766808993963, -0.18806778056689213, 0.21604632345155678, 0.10240051506226573, 0.5032713870285555, -0.26437280932995083, 0.1944832965944387, -0.0879850981578216, -0.2580331712854569, 0.2318445754593563, -0.0979436623677364, 0.2590383182226243, 0.11828005309395853, -0.08406874975536958, 0.09842449360648009, 0.1095164732599562, 0.09120934126660471, -0.2024307560075853, -0.10491686089779649, 0.38169661653970216, 0.15988846306617432, -0.13554198279551746, -0.012401332169075569, 0.14998746522296186, 0.03754370960660412, -0.15955018338562726, 0.025539954202493418, -0.15097910471567705, -0.08739184536329267, 0.41971372508535576, 0.002739853236505198, 0.3781304046106379, 0.21183350226625447, 0.028492301735542555, -0.38448250348152807, 0.2366291788444967, -0.10355317872983213, 0.11597597719726327, 0.04032205949742132, 0.4021953381304617, -0.03385354050773217, -0.10705652357723981, -0.0826944343492409, -0.008912837583206068, 0.06609449810580285, 0.35402881734541386, 0.23222109473644917, -0.03535892151027061, -0.06988727620406043, -0.26099436839575696, -0.05689427209122108, -0.06518275580634494, 0.05233847897542712, 0.27605491224192796, -0.18817177122318215, -0.14584268496938607, 0.19493036490897594, -0.16850011118381944, -0.053267103970815244, -0.05544653262540705, 0.1918299791833129, 0.037953847944267115, 0.23838927370014867, -0.024118014075697778, -0.023001204264606667, -0.03706026074560723, -0.10134493004480462, 0.11474675392095116, -0.08349334117532223, -0.033283122104199786, 0.09609970237629557, 0.07805854184441036, -0.02942450515369784, -0.06494308911624734, 0.07256606350628306, -0.01853579023979731, -0.1710813843459736, -0.375619402122415, 0.225977018218391, -0.07161120348093424, 0.22415258306226585, -0.12022158042805813, -0.26919434954374244, 0.04161732368764729, 0.007751579398749792, 0.16019745412782657, 0.12293397790505617, -0.08156142594933456, 0.3900924069990272, -0.02194877289145224, 0.040169750116191824, 0.06573761638576026, 0.25956720162467956, 0.011039241261783246, 0.07511202375936393, 0.16410181063759546, 0.29707356047796074, -0.14311846473230264, 0.00428415785539132, 0.19697676293697577, 0.011532500715652249, 0.06771900498945169, -0.038450790312762224, -0.10876785528002823, 0.00182089981568346, 0.24678345730885615, -0.005327737835075636, 0.035878374721810276, 0.05399576601728427, 0.14761521182330312, 0.4582874122244118, 0.359743240763949, -0.11774795966582204, 0.07515775611650495, -0.06933634699220911, -0.09281573174942648, 0.08910708090866466, -0.009445733240042978, -0.17990486315307636, -0.04549189136447754, -0.006834607062811256, -0.047842334614950625, 0.09482661363192746, -0.044473022103207416, 0.32190215626146307, -0.007644348605678979, 0.01758520557881975, 0.22300847329364726, 0.09981843322475227, 0.14434619092973114, -0.020124046412620965, -0.1593948366024739, -0.09849907347914123, 0.117210869333398, -0.021119003746503693, -0.04717110366555832, 0.16626490897762836, -0.049979694508472686, 0.22833001550683754, 0.027831653439954845, -0.007707824797717126, -0.31248932942598306, 0.07804444471346787, -0.015259011481338486, 0.032040409161731245, -0.08707088227763225, -0.1255679107809599, -0.06028373349379706, -0.04637487515354568, 0.04885999890240281, -0.09459831417932581, 0.11249939797868541, -0.06310689866677723, 0.07255333389587539, -0.07678023659488488, -0.058429529730297546, 0.3350320093519094, -0.09459098553326185, 0.020820662367439905, 0.15091145247332172, -0.14378593826333722, 0.1500415365365038, 0.16332939938771146, 0.12693615371565106, -0.019544142055558683, -0.22145921962428797, 0.10305185020619728, -0.08505104500974284, 0.015983055622409325, -0.004916148000898954, 0.11099105327221206, 0.20117938581328695, -0.23790643474262996, 0.03973654444998733, -0.021547744889677926, -0.261688419346761, 0.10119526599901, 0.13323904409793297, 0.24589885878807852, -0.10314669861926848, 0.12885214269212103, 0.0994255255206759, 0.00753017138486993, -0.08441595672510635, 0.019274089775453043, -0.33378078616614276, 0.19570371050010804, -0.023565250513212975, -0.005020813933607656, -0.053975596129150934, 0.09658060369211828, -0.03329113821177764, 0.07569390104782825, 0.08831186048106618, -0.12275007872355653, -0.04186303045370687, -0.0005437052812640711, -0.006798662566185744, 0.08497386417243882, -0.13004000728420878, -0.3004336839668262, 0.35715980545201303, 0.20587284761887137, -0.058092298906140614, -0.04197358504297059, -0.07992902582381774, -0.043196410719090535, 0.0645714201730247, -0.14611220975071987, 0.00358777909858944, 0.19347883452631218, 0.14160408532104385, 0.016934752328412142, -0.04098320812990431, 0.05144057672671794, 0.07888191903939235, -0.047367123784620685, -0.03564208736167785, -0.06498807846502602, 0.03748359989415935, -0.004530592153216179, 0.02542823367873919, 0.06783035941516638, -0.008300418791600789, 0.08783252807679358, 0.004935937042814099, 0.08882322458056838, -0.06894704625877157, -0.05501040858535351, -0.05630178548516546, 0.014873532074108067, 0.01888091698073448, 0.1500121554162517, 0.0788440883868769, 0.017322021100094308, 0.23184903960179062, 0.029729311493935817, 0.03821911935924724, -0.04949419148813182, 0.015651970701793236, -0.0048181369932457415, -0.0892680877644627, 0.015031836971989253, 0.10027879238919499, 0.04464176735836439, 0.01398488938924355, 0.05713206849507635, -0.10517521744000558, 0.011937933594790824, -0.12788039267102452, -0.03256263421176052, -0.03540162505385783, -0.25072574612558335, 0.04301228167746068, 0.10220961031903189, -0.16493813925555761, -0.011274997173556008, 0.1807443456465808, 0.0185745881295259, 0.029421961909157014, -0.018227764887175268, 0.1419784497295335, -0.013566833403417989, -0.07355066685969991, -0.008162082514381209, 0.1332339298401447, 0.09585926997884454, 0.08055870627879069, -0.059151811256389256, 0.04301426895318973, -0.04183434359094529, 0.23555991312054833, 0.04896731181497452, -0.054539877173597165, 0.029800738333899186, -0.11253881828277044, -0.039232787950420595, -0.010694200231918076, -0.08434689025863465, 0.08683020230272878, -0.11156054464035016, 0.11867738929575593, 0.034541350917129614, 0.3314669528655745, -0.02621020491840694, -0.1505226817570563, 0.06310287529784217, 0.11556670646866311, -0.06033436916787085, 0.1296373939586624, 0.08427833037293285, -0.0670028801212627, -0.015186450219667138, 0.13893294254471664, -0.18047128213056465, 0.3966916231947686, -0.021930730597786018, -0.14831718995327722, 0.0787793151178865, -0.008536460689460651, -0.07717594062679661, 0.022888056142357643, 0.12819983042019234, -0.14423457041541177, -0.07811801514267114, 0.2572098180077201, -0.0055461097971331785, 0.015601598855817174, 0.0276144463334857, -0.07374758340082191, -0.021897983893889663, -0.2955679203870961, -0.068825785526865, 0.16847162728088205, -0.11703794262264601, 0.06589169923838993, 0.1787126854440996, 0.007463192967207684, 0.022720432709563844, 0.06628351735145023, 0.1529932647647246, 0.045397467216628136, -0.027864155090001817, -0.002071091638068586, -0.0054898176300894755, -0.0049205248736571, 0.030407379067823467, 0.0007211903183430993, 0.11003679446837297, 0.1947037652690794, 0.024969726277898167, 0.016559625726167218, -0.06925899353826634, -0.14628057449993984, -0.029157502610220903, 0.07626391907295989, 0.001468057118298595, 0.12332550661770718, -0.021026570306212487, -0.04553251381570918, -0.1596929497065794, -0.029349445385123192, -0.08185946739689261, 0.1269079769019469, 0.04075490118247514, 0.003393933028467827, -0.041220167237893894, 0.0022726905158859975, 0.04491649733406567, -0.009772149139953121, -0.041956786545363924, 0.012292420315963925, 0.035382471863112865, 0.004016891781659024, 0.0740100651134763, 0.01230879038202897, 0.04288598143983727, -0.03810821062392383, 0.1015303470234109, -0.0832449262194203, -0.037999312282745466, -0.034893425142347556, 0.006366767288512159, 0.011815446361816098, 0.06389255218724774, -0.0009964223769828324, -0.14784570310875186, 0.07188302533766677, 0.09332484444825445, 0.0009219326996317942, -0.011312188252522885, -0.022594907193825606, -0.002573003372279457, 0.0025954932348596065, -0.018522615601337996, -0.20538846035256528, -0.04832637795761204, -0.04566471475838192, -0.025838797464057723, 0.10335793107351461, -0.0012644804115029464, 0.0036893549853230633, -0.06672050385105441, -0.09236944127751735, -0.10989373992129636, -0.02436373751254306, -0.03981365272438048, 0.010873858147094689, 0.01528641888098093, -0.04930466213636545, 0.04992385037785757, -0.1259752206397285, 0.07743047786886283, -0.05470675847748874, -0.08773391051334928, 0.11460042396834443, -0.11190570073677654, -0.08942439149038782, -0.19936491173137624, -0.009017680655416608, 0.04589409140233119, -0.026278534293195887, -0.025340538355896218, -0.12581959985070454, 0.13007158113972891, -0.06474146423509444, -0.00204949794027563, -0.04124695073558331, -0.23735021883922142, -0.001373167213416828, 0.10028430254665241, 0.004512895503520981, -0.031270907363572034, -0.0031264158523167654, -0.16121402158548215, 0.024640167977788757, 0.12830721228184264, -0.043020889277287054, -0.013562356738058945, -0.046092630731655204, -0.006365409688983612, -0.001680958354236966, -0.0031655408459089415, 0.2024721660635937, 0.21203740760899575, -0.027759124142220284, -9.759798297394318e-05, 0.0007089705865198463, -0.06704574426870534, -0.07251576649437025, 0.04312892251457016, 0.00464323709045929, 0.0017574586605250374, -0.0836664937858955, -0.02234400524556105, 0.0189174329476205, -0.0049470624134381755, -0.16868634535970323, 0.07751858912572514, 0.007625365282454507, 0.06114961230386374, 0.08172991745395673, 0.02850939386621576, 0.13363636480068944, -0.0011324491135492176, -0.22886443271625675, -0.027497152568065536, -0.03610565503117975, -0.03663882375308515, 0.07289161576860505, 0.24775692678135558, -0.023290730527504633, -0.007004510174860729, -0.00469810826131799, -0.04464079682726205, -0.0014317188182176978, 0.08825768440127925, 0.1467380235038747, -0.1130111599504812, 0.16048212183680705, -0.09809702678357746, 0.08852797848486169, -0.035527783763826204, 0.16672316723798794, -0.012536126229094722, 0.025720244243462892, 0.10136603000330474, 0.015080930662054265, 0.08288716695240138, -0.010411278335067976, 0.04458924283055047, -0.018189694878117522, -0.009611158262784702, -0.003142729632832293, -0.006852712584878504, 0.002424440793875143, -0.023184396265681168, -0.006251039034020956, 0.022271566733219617, -0.04626003392935098, -0.022695002985110763, 0.27556621444779983, 0.035237907530240295, 0.018022221778561366, 0.028917495148852647, 0.006573736022770617, 0.05718669225825713, 0.002694383381615742, -0.019259381994534735, 0.06182419837080669, -0.0098614976791878, 0.011663089602704109, 0.019522996865464937, 0.0685936053707823, -0.09379939413965227, 0.033183400547076324, 0.03226912411619573, -0.18429825479053003, -0.001205642639824622, 0.02080829927182181, 0.003440412912019713, 0.030299353292644816, 0.015482247819264107, -0.06653689711366295, 0.003984941154930445, -0.02860431690008616, 0.010114889308474045, 0.13204415383542098, -0.0246239607584215, 0.008142112347042613, 0.007042419735273612, 0.005988229886434164, 0.10548764030701771, -0.033549083935996274, 0.0031797421011765074, -0.06147332551080391, 0.09442972380884582, 0.021171540728542257, 0.18778702185062573, 0.18709948096876744, 0.008729432305001578, -0.007354183933757431, -0.039059113143129334, -0.05657234653770218, 0.014988489409788917, 0.13283368418889863, 0.03949128876556966, 0.09471788828801506, -0.006100046810898062, 0.05918826775927493, 5.10081729440115e-05, -0.008889131958336365, 0.07564922344887721, 0.0772785885053769, -0.034274602065744994, -0.2049774853268338, -0.04349301145661154, -0.032382313550517634, 0.1005053297140349, 0.013926361996121723, 0.00022291987133280655, -0.034699722676496764, -0.03773976579386024, -0.05217737946889439, -0.004827592035898592, -0.007573728559418162, -0.00311734580315263, 0.005369851521330134, 0.11615385465652624, -0.06850394397200489, -0.005347254196919274, 0.06546897868626494, -0.0045086347891545005, -0.0034073811286860147, 0.0755599913225477, -0.03179681476052061, -0.039755729106276935, -0.10975398198350168, 0.00878463772135384, -0.04430729028253215, -0.0630338133201727, -0.0018675081950668831, -0.050049339414103805, -0.02985778534324557, 0.14628988798717918, 0.01230058016563853, 0.07741553791903105, 0.1278622364333446, -0.003013591520769458, -0.00475986132435354, -0.05043370334564504, 0.12398826604956405, -0.012014319076482155, 0.031411939937517425, -0.08342742658687731, 0.061030601202483305, 0.04297176626532818, 0.04424759407666042, 0.01634103442237982, 0.01115311221906088, 0.017350855792435477, -0.019622603811303176, -0.04895177066811113, 0.001270183993845101, 0.08557906843672464, -0.0029647299302220046, -0.013592228407826187, 0.050750749096048174, -0.020096613118094932, 0.013018998605074569, 0.019065274709150704, -0.028979426387050557, -0.022816031482821297, 0.007811078453446134, 0.04472167343499073, -0.008910052631724934, -0.01449251081606738, -0.0536676214225262, -0.008099046157084022, 0.03287150140707235, -0.00045468451226734173, -0.00758034710122261, -0.0004836666468015331, -0.0032863787250998603, 0.1390230321724238, -0.07076958052505367, 0.03026854055042757, -0.021105559336153937, 0.0722813213961065, 0.0035545159283619757, -0.004887023154486507, -0.018401139098472873, -0.21009142200961764, 0.012708618008549954, -0.00304508338233719, -0.11591577578829068, 0.06269820811915673, -0.012737795328894148, -0.01430683309004549, -0.008039349592010596, -0.17544318568519104, 0.005948556398911162, -0.007372551671347161, -0.04813190829372017, 0.03904051296824684, 0.009505500027796796, -0.1358491375534387, 0.049901707636406625, 0.12022400474112516, 0.03147185281635723, 0.003102816785724014, 0.019074059997902182, 0.01707556927090793, 0.014258466812992155, 0.01287800931093155, -0.022456099530297865, 0.015989250614576307, 0.006524442190928191, -0.09161431309875907, 0.14012476762475906, -0.009168980746040216, -0.15908029755883363, 0.1618922024059387, 0.006450274039422225, -0.01938082378813954, 0.11801419690637441, 0.1431244127559754, 0.010603350674245894, 0.005424262839436335, -0.10278717442417794, -0.011064505674065153, -0.043537531950968725, -0.007675019545583292, -0.03751378782514396, -0.03216806868208903, -0.00841794886125902, -0.04845033365304003, 0.029565149729998894, -0.012802964478067938, 0.004037399614867954, -0.003428051051930378, -0.06866015315250763, 0.18331826939016055, 0.004797514782216386, 0.022179802245176756, -0.0024959200525782434, 0.04264931661006987, 0.05692018393114914, -0.16913325162533147, 0.001225134136659898, -0.006325264119569422, -0.016536050544304466, -0.041239526362781796, 0.07289998734099308, -0.10189296026360364, -0.037830963702770073, -0.038593663931070624, 0.0072066225806195795, 0.013567422852434915, 0.013124012501850526, -0.009904869760822384, 0.05389076958478309, 0.007940897505841513, 0.26257919378533406, -0.0013280652701173849, -0.04242193036915788, -0.07798336559834705, -0.016682012581263485, 0.06639445629258292, 0.006897884706180472, -0.17925205623323276, 0.014660819988297977, 0.019870279410621073, 0.177050813859695, 0.005042249516225644, -0.08165126053169158, -0.006164158839914001, 0.026896463524663173, 0.0693342134202393, 0.004281965563513426, -0.023721754241225718, -0.057661709833345114, 0.010123646866008508, -0.10409207597516065, 0.019393279517449465, 0.0354318515431226, 0.019476662229704456, 0.008425517619679817, 0.0035762017231601812, 0.0020862574771014844, -0.08220424312996247, -0.005264177595548988, 0.014763222186604478, 0.02466201183631983, 0.021723595958722922], [0.41785815602604254, 0.6090760346055836, -0.3962338688451318, 0.11552518708016216, -0.4026679969157633, -0.32869659686983504, -0.34048023501835906, 0.05043328371503476, -0.3841465561220255, -0.3216752015453241, 0.3859780107799321, 0.5726894735693732, -0.4314745659184827, -0.19387067775747036, -0.3302950731517421, 0.835438586669413, -0.238591880592621, -0.474017455240487, -0.19950740852618587, -0.2342546568617307, -0.2987651655511648, 0.3030154880532539, -0.09626488017386006, -0.1830205074847045, -0.17797533696496493, -0.10273128794758585, -0.06335509549302117, 0.455343531212399, -0.24175640065295603, -0.2956267597739757, -0.19842213587009813, -0.44623209087374094, 0.11921798966130454, -0.13704224476097224, -0.2551108362262837, 0.43653412274003167, -0.11462509307634924, 0.013869127349233944, 0.030264773433448293, -0.19813225606867182, -0.06249902894254523, 0.17075051015015458, -0.17065567008245083, -0.15624479897192387, 1.2091502591613372, -0.3192821844017212, 0.263380566658913, -0.03464564943085012, -0.060667565169333526, -0.09836077671862266, -0.05353099290205006, -0.07347168758615533, 0.25344305121953997, 0.5904092586731681, -0.2433933180449205, -0.01055733478529372, -0.14338025805163238, 0.01757061164211673, 0.1728142720522273, 0.12187565797904056, 0.2551520516067297, 0.1986677238001207, -0.1801248439157959, -0.05331982662810583, -0.15678513005143788, 0.21098022991979237, -0.15020228297798272, -0.2591090325822854, -0.16283662117837183, -0.27771175275707993, -0.004440580881163402, -0.10092940991444138, -0.16675644974602785, -0.09949842076453065, 0.4471421555081359, 0.26457526185289065, 0.7735970397728813, -0.09075837946260679, -0.09406700113639889, -0.186433755279435, -0.23398354903784258, -0.39121715463637413, -0.07492902015912849, 0.8632685633641014, -0.2646657437261227, -0.0856619065976167, 0.11326421712333078, 0.9320533792641721, 0.036983211760677155, -0.12290531559533556, 0.8074283989445984, -0.044708319454797744, -0.0525090059944629, -0.18697849927894636, -0.0018370381615292002, 0.05306874571626119, -0.3461362564732612, 0.8197826795222197, -0.2569853393593451, -0.06823021533840547, -0.15188501642559835, -0.34815112914254953, -0.15008573555169674, -0.04304026572856878, 0.18477638326030874, -0.2638530120014593, -0.1592244440537223, -0.12916967299566437, -0.11627928543545525, -0.2963128306431923, -0.09161261450198276, -0.06241947296285485, -0.11965256398478484, -0.14981626225297318, 0.04923396594992241, 0.2704617518884295, -0.13326501720950434, -0.08876497668406486, 0.01648394944049265, -0.03935089963949796, -0.2137961962310992, -0.03100395917481678, 0.48334813563701484, -0.15077371917492954, 0.2544181034142713, -0.3511399712360313, -0.023524443718070935, -0.1454369017021654, -0.30298831796010484, -0.13370620798345428, -0.20909297274386357, 0.0712018773096312, -0.03949236663755011, -0.16827272088565493, 0.03766245590853882, -0.05200552213982896, -0.04602049754022673, -0.04021378194872494, -0.10184003521382122, -0.2717659866856714, -0.10898944052952052, -0.05178942381301504, -0.20412237011842765, 0.018406944109858055, -0.07889870147141109, -0.04673806667800732, -0.0686682527594834, -0.215218684373566, -0.013519378512440672, 0.3402640724953959, -0.1882870032913827, -0.22828366243580955, -0.2783770722015739, 0.32582699357623973, -0.05342928432633727, 0.527312755246889, 0.06144582164549184, -0.059014691114572165, -0.0500947757623557, -0.06117320108453256, -0.12960648772443173, -0.04862332464341784, -0.1636514482834766, 0.01673482039846157, 0.1420232688674382, -0.012199444594650388, 0.026742231484703324, 0.030535118359923633, -0.2818587988242054, 0.011165483979304681, -0.2636518617419507, -0.020489069375931885, -0.12218350112872942, 0.48986661619086574, 0.08026016471471355, -0.049015987286917174, -0.13354885023502333, -0.09086506578945987, -0.1399278814237774, -0.009605048348564786, -0.006466097722570237, 0.3243024763666891, -0.03970493703259301, -0.04390289885612772, -0.042965132054334304, 0.0566302517649581, 0.03600551239839296, -0.004898936003670026, -0.22691446978790203, 0.6021693295041172, -0.006244477930280969, 0.2533384158662862, -0.09480997661451049, 0.03854707576529155, -0.07501651254445467, -0.011597702255691978, -0.071346028889967, 0.002340517501403322, 0.09684917599502442, -0.005120696412729217, -0.049244318975361884, -0.10537202054212681, -0.0968632241404366, 0.23683407966924247, -0.019234235236000922, -0.08614082925344771, -0.029367242439001476, -0.140703769358646, 0.08042453510258592, -0.07505107655173159, -0.04286860383648177, -0.06797347147616584, -0.02198773589814168, -0.042147599315782935, -0.19251281235481071, -0.16746184768960432, 0.05500781022153262, 0.7033901621248941, -0.05586595915113395, 0.1208060340821099, -0.0011243074034745296, 0.03647941802176465, 0.2838473981755282, -0.05838314433662062, -0.07808416135857936, -0.2827505490724973, -0.0036679051922284423, -0.05303419922199904, 0.08358152154901084, -0.017216688596446802, -0.04974352604912086, -0.08797129044181075, 0.3961545222738449, -0.07446153781976562, -0.026273014884783164, 0.01252984863591225, -0.28021792860418016, 0.07543602749499312, -0.1009217967963412, -0.07298560739477769, -0.03472937998615128, -0.02928255843144576, 0.2358744470691362, -0.06869474820347554, -0.04107402483961886, 0.0652025390568314, 0.3020386717946134, 0.15718633463230192, -0.03223741052652146, -0.06489407534810099, -0.03690684864410054, -0.21670920134466898, -0.0855429999620293, -0.0952982699605053, 0.1368453639089606, -0.1246741010289181, 0.18948290890240588, -0.013154814411697593, 0.05323400737341056, -0.03877472681503678, 0.1806589408366069, -0.032417537367783696, -0.08534427314619764, 0.20921594110338335, 0.42414932016284046, -0.1648131529335431, 0.026713412578339098, 0.11700905793381611, -0.11075439593168554, -0.1860792787911153, -0.05415170882952933, 0.1997051094091788, 0.004145043051615278, 0.15853379512943816, 0.15073382298733465, -0.10313868833470308, 0.21338323421450123, -0.02187010797186798, -0.03906457541953643, 0.1938359844248487, -0.06567422901754172, 0.10169443330387863, -0.021697907595911725, -0.06436149363469726, 0.006012537917220867, -0.02889035918106109, 0.14872676281057234, -0.1486760296796532, -0.019965335195814535, -0.12106987593403068, -0.007717368376527842, 0.20703816592479324, -0.1172516729487097, -0.06814512576177253, 0.014182308048514898, 0.15630862421566027, 0.09898288414805727, 0.08032321475265566, -0.0277498190822213, -0.10831029340074362, -0.09865663398874935, -0.13412368743967146, -0.03494942884258257, -0.03232808273380152, -0.04758095217492986, -0.007485629408755082, -0.18395042297512923, 0.11981647626316472, 0.1155460693954015, -0.04565157647384147, 0.0649571644211947, 0.0001209763110280743, -0.0012916519810973782, 0.33197075998609304, -0.021299328905218854, -0.08878719274725178, -0.1522912289233161, 0.2542824307350896, -0.005269450398438693, -0.3118688399788391, -0.032633654955356674, -0.049441815919326206, -0.24889477282732575, 0.03422628788867548, 0.0553812153247646, -0.11006429844492976, -0.00616471844211806, 0.18390312524660485, -0.17450147031373953, -0.03526470228126035, -0.007106359253511256, 0.11630616081920482, 0.040222570614385784, -0.028198126796102875, -0.5991652180254105, 0.12235055210906609, 0.02163818559911324, -0.12766695254032723, -0.12246661107607537, -0.04821457260088408, 0.009058298890101946, 0.12136374831095334, 0.07176529931731765, 0.03946366947980391, 0.24364539902868304, -0.3033508737583703, -0.07547518561811636, -0.0044698743093767035, -0.0019356505852191428, 0.00213734229530414, 0.003459678426091555, -0.05252772512561583, -0.03708935072206483, -0.07140455063566037, -0.032618861848750305, 0.05658841392266143, -0.005082706045530945, -0.07944229530734699, -0.06639859282170721, -0.02610910729248254, 0.10994910528801559, -0.012723671248075292, 0.06475290243089812, -0.0396327459353378, -0.09008673115246335, -0.1279405055322417, -0.04630632061980187, 0.14169644803410786, 0.03697541576684475, 0.04621578290181063, -0.02426001699984633, -0.1393390165451172, -0.030021704683707615, -0.049014312604004955, -0.27495752018532055, 0.11186839181904429, -0.04527263217675373, -0.03535506594509501, -0.12132060666726543, 0.004900436495667006, -0.03629778510343306, -0.09442677481484199, -0.18187581505535264, 0.1711875552381417, 0.0025660898475900126, -0.02663261674121044, -0.06619270027856607, -0.021929785651945748, -0.023228189828003336, -0.023232686328353236, -0.06895346593515353, 0.2642385369479778, 0.026163596923614918, -0.0024601447138731143, 0.04060234739251209, 0.20237481913097205, 0.11224330820546642, -0.01933042510383006, -0.050826726557130136, 0.019124378329295314, 0.015877111366311418, -0.1922477163831219, 0.013714813409842111, -0.006421636234426275, -0.248301853784169, 0.03242488700075645, 0.26997895588136067, -0.0937396314864721, -0.018284906410015594, 0.3165834549146193, -0.038166814002087435, 0.015793569420978804, -0.01474390284696812, 0.4153469602733824, 0.3844401740097125, -0.12091351916168305, 0.0825373159348574, 0.04636989504793151, 0.04563899547365737, 0.046902213211764, -0.06515550706844331, -0.06698967724871921, -0.06775542393117447, -0.008916723472550375, 0.0517305791766462, 0.0008803411023835745, 0.02524276707722109, -0.11568086892842727, 0.044434629402759294, -0.07363220169807606, 0.22129772913928358, -0.008349560825672425, 0.018132310728870372, -0.15666668464361788, -0.005562777532777697, 0.08951866517593249, 0.13889258760770687, 0.05881327598843669, 0.04318500472421368, -0.00453439573759527, 0.06617778679757115, 0.1605051702893687, -0.004284938954098787, -0.00371952299951711, -0.006502882922204287, 0.001433831186333512, -0.021785362404767673, -0.08426526678255723, -0.02512957899777482, 0.048008544985909264, 0.0925305115987976, -0.060148968560561136, -0.2022678755307025, -0.007812105400566606, 0.0681443839483649, 0.007498729464755881, 0.03141603603233107, 0.12830630606790935, -0.08973622737199255, -0.022757825693126586, -0.24467051928356431, -0.04293010923472015, 0.01825575778340208, -0.013510316194590215, -0.026373432762431384, 0.015620766513409892, 0.03544210861045992, -0.025358941267399807, -0.009265795619489679, -0.10374365745881939, 0.01803752929935279, -0.00429510678305916, 0.1717352514240526, -0.013958935173846384, -0.00350760143417709, -0.10431137992497042, 0.03662786973738754, -0.10619023011674433, -0.2624475880238128, 0.08759172165339948, 0.012931951658500506, -0.11116948374900466, -0.010225070955268804, 0.061541949769873885, -0.30759032560915245, 0.2315241626652369, -0.006679894433651369, -0.025541802090132813, 0.186983251508277, 0.1156898226921091, 0.09450702316271542, -0.028709972140165557, 0.012969009687790719, 0.16489710488218146, 0.03306212498558759, 0.004077505401990785, 0.05732460655761675, -0.07372884904323074, 0.005694554789806364, -0.066242753408567, -0.022048168849951227, -0.23893292362726387, -0.03797573538692603, -0.0013974007311328314, -0.05305180701004059, -0.021106704070790426, -0.009133464476520551, -0.07547566567056645, -0.008047350833049525, 0.2201871306963178, 0.006413545828117203, -0.01909244561621061, -0.02003484927002193, -0.022364620641930708, 0.006164760097191387, 0.03969241159337188, 0.2750971738238486, 0.014368808368906348, -0.015253451822391238, -0.05699395159956183, -5.243284288945138e-05, 0.03855300640164615, 